{"learner":{"attributes":{},"feature_names":[],"feature_types":[],"gradient_booster":{"model":{"gbtree_model_param":{"num_parallel_tree":"1","num_trees":"100"},"iteration_indptr":[0,1,2,3,4,5,6,7,8,9,10,11,12,13,14,15,16,17,18,19,20,21,22,23,24,25,26,27,28,29,30,31,32,33,34,35,36,37,38,39,40,41,42,43,44,45,46,47,48,49,50,51,52,53,54,55,56,57,58,59,60,61,62,63,64,65,66,67,68,69,70,71,72,73,74,75,76,77,78,79,80,81,82,83,84,85,86,87,88,89,90,91,92,93,94,95,96,97,98,99,100],"tree_info":[0,0,0,0,0,0,0,0,0,0,0,0,0,0,0,0,0,0,0,0,0,0,0,0,0,0,0,0,0,0,0,0,0,0,0,0,0,0,0,0,0,0,0,0,0,0,0,0,0,0,0,0,0,0,0,0,0,0,0,0,0,0,0,0,0,0,0,0,0,0,0,0,0,0,0,0,0,0,0,0,0,0,0,0,0,0,0,0,0,0,0,0,0,0,0,0,0,0,0,0],"trees":[{"base_weights":[1.9782478E-6,-6.39133E2,1.2889398E3,-7.3423834E2,-4.4272064E1,8.4439874E2,1.6033044E3,-7.65194E1,-5.7993275E1,-2.2399574E1,1.5196068E1,5.6820618E1,1.0388622E2,1.4447472E2,1.8260966E2],"categories":[],"categories_nodes":[],"categories_segments":[],"categories_sizes":[],"default_left":[0,0,0,0,0,0,0,0,0,0,0,0,0,0,0],"id":0,"left_children":[1,3,5,7,9,11,13,-1,-1,-1,-1,-1,-1,-1,-1],"loss_changes":[2.8124668E10,1.2911667E9,1.5801733E9,9.35465E7,1.110214E8,2.5130624E8,2.3149773E8,0E0,0E0,0E0,0E0,0E0,0E0,0E0,0E0],"parents":[2147483647,0,0,1,1,2,2,3,3,4,4,5,5,6,6],"right_children":[2,4,6,8,10,12,14,-1,-1,-1,-1,-1,-1,-1,-1],"split_conditions":[2.87E1,2.81E1,2.96E1,2.77E1,2.84E1,2.91E1,3.03E1,-7.65194E1,-5.7993275E1,-2.2399574E1,1.5196068E1,5.6820618E1,1.0388622E2,1.4447472E2,1.8260966E2],"split_indices":[3,3,3,3,3,3,3,0,0,0,0,0,0,0,0],"split_type":[0,0,0,0,0,0,0,0,0,0,0,0,0,0,0],"sum_hessian":[3.4138E4,2.2822E4,1.1316E4,1.9676E4,3.146E3,4.689E3,6.627E3,1.6385E4,3.291E3,1.642E3,1.504E3,1.939E3,2.75E3,3.876E3,2.751E3],"tree_param":{"num_deleted":"0","num_feature":"4","num_nodes":"15","size_leaf_vector":"1"}},{"base_weights":[1.0124972E-2,-5.752259E2,1.1600889E3,-6.5116895E2,3.4980698E1,7.9613715E2,1.4745631E3,-6.835468E1,-4.574014E1,-6.6815505E0,1.9790243E1,5.562021E1,1.0060316E2,1.3670476E2,1.7071275E2],"categories":[],"categories_nodes":[],"categories_segments":[],"categories_sizes":[],"default_left":[0,0,0,0,0,0,0,0,0,0,0,0,0,0,0],"id":1,"left_children":[1,3,5,7,9,11,13,-1,-1,-1,-1,-1,-1,-1,-1],"loss_changes":[2.2782274E10,1.057663E9,1.2940954E9,1.270272E8,4.192304E7,2.637353E8,1.4944256E8,0E0,0E0,0E0,0E0,0E0,0E0,0E0,0E0],"parents":[2147483647,0,0,1,1,2,2,3,3,4,4,5,5,6,6],"right_children":[2,4,6,8,10,12,14,-1,-1,-1,-1,-1,-1,-1,-1],"split_conditions":[2.87E1,2.82E1,2.97E1,2.78E1,2.85E1,2.92E1,3.05E1,-6.835468E1,-4.574014E1,-6.6815505E0,1.9790243E1,5.562021E1,1.0060316E2,1.3670476E2,1.7071275E2],"split_indices":[3,3,3,3,3,3,3,0,0,0,0,0,0,0,0],"split_type":[0,0,0,0,0,0,0,0,0,0,0,0,0,0,0],"sum_hessian":[3.4138E4,2.2822E4,1.1316E4,2.0296E4,2.526E3,5.247E3,6.069E3,1.7388E4,2.908E3,1.555E3,9.71E2,2.45E3,2.797E3,4.155E3,1.914E3],"tree_param":{"num_deleted":"0","num_feature":"4","num_nodes":"15","size_leaf_vector":"1"}},{"base_weights":[1.9724656E-2,-5.177077E2,1.044121E3,-5.860577E2,3.1487837E1,6.4209357E2,1.2754968E3,-6.0981056E1,-3.674805E1,-6.013822E0,1.7813255E1,4.033504E1,7.7638084E1,1.0693517E2,1.4115826E2],"categories":[],"categories_nodes":[],"categories_segments":[],"categories_sizes":[],"default_left":[0,0,0,0,0,0,0,0,0,0,0,0,0,0,0],"id":2,"left_children":[1,3,5,7,9,11,13,-1,-1,-1,-1,-1,-1,-1,-1],"loss_changes":[1.8454714E10,8.567373E8,1.05188045E9,1.0515405E8,3.396469E7,1.3228762E8,1.9997082E8,0E0,0E0,0E0,0E0,0E0,0E0,0E0,0E0],"parents":[2147483647,0,0,1,1,2,2,3,3,4,4,5,5,6,6],"right_children":[2,4,6,8,10,12,14,-1,-1,-1,-1,-1,-1,-1,-1],"split_conditions":[2.87E1,2.82E1,2.95E1,2.79E1,2.85E1,2.9E1,3E1,-6.0981056E1,-3.674805E1,-6.013822E0,1.7813255E1,4.033504E1,7.7638084E1,1.0693517E2,1.4115826E2],"split_indices":[3,3,3,3,3,3,3,0,0,0,0,0,0,0,0],"split_type":[0,0,0,0,0,0,0,0,0,0,0,0,0,0,0],"sum_hessian":[3.4138E4,2.2822E4,1.1316E4,2.0296E4,2.526E3,4.135E3,7.181E3,1.8305E4,1.991E3,1.555E3,9.71E2,1.49E3,2.645E3,2.859E3,4.322E3],"tree_param":{"num_deleted":"0","num_feature":"4","num_nodes":"15","size_leaf_vector":"1"}},{"base_weights":[2.5974263E-2,-4.801934E2,9.121369E2,-5.358102E2,-7.3034035E1,4.9894022E2,1.1259401E3,-5.5935146E1,-4.1847034E1,-2.1521664E1,3.4322984E0,3.317891E1,6.561556E1,9.438415E1,1.2704571E2],"categories":[],"categories_nodes":[],"categories_segments":[],"categories_sizes":[],"default_left":[0,0,0,0,0,0,0,0,0,0,0,0,0,0,0],"id":3,"left_children":[1,3,5,7,9,11,13,-1,-1,-1,-1,-1,-1,-1,-1],"loss_changes":[1.4953775E10,5.0641357E8,1.0396744E9,5.412045E7,4.105309E7,1.0534394E8,2.0298957E8,0E0,0E0,0E0,0E0,0E0,0E0,0E0,0E0],"parents":[2147483647,0,0,1,1,2,2,3,3,4,4,5,5,6,6],"right_children":[2,4,6,8,10,12,14,-1,-1,-1,-1,-1,-1,-1,-1],"split_conditions":[2.86E1,2.81E1,2.94E1,2.77E1,2.83E1,2.9E1,3E1,-5.5935146E1,-4.1847034E1,-2.1521664E1,3.4322984E0,3.317891E1,6.561556E1,9.438415E1,1.2704571E2],"split_indices":[3,3,3,3,3,3,3,0,0,0,0,0,0,0,0],"split_type":[0,0,0,0,0,0,0,0,0,0,0,0,0,0,0],"sum_hessian":[3.4138E4,2.2364E4,1.1774E4,1.9676E4,2.688E3,4.016E3,7.758E3,1.6385E4,3.291E3,1.156E3,1.532E3,1.948E3,2.068E3,3.436E3,4.322E3],"tree_param":{"num_deleted":"0","num_feature":"4","num_nodes":"15","size_leaf_vector":"1"}},{"base_weights":[2.9356219E-2,-4.056907E2,8.7588617E2,-4.7485983E2,5.68691E1,6.1650433E2,1.0782478E3,-4.9909924E1,-3.2980194E1,-4.8962426E0,1.6802168E1,4.4797832E1,7.332523E1,9.9035164E1,1.2684401E2],"categories":[],"categories_nodes":[],"categories_segments":[],"categories_sizes":[],"default_left":[0,0,0,0,0,0,0,0,0,0,0,0,0,0,0],"id":4,"left_children":[1,3,5,7,9,11,13,-1,-1,-1,-1,-1,-1,-1,-1],"loss_changes":[1.2131741E10,7.465311E8,5.666355E8,7.120179E7,3.5722056E7,9.291162E7,1.0021734E8,0E0,0E0,0E0,0E0,0E0,0E0,0E0,0E0],"parents":[2147483647,0,0,1,1,2,2,3,3,4,4,5,5,6,6],"right_children":[2,4,6,8,10,12,14,-1,-1,-1,-1,-1,-1,-1,-1],"split_conditions":[2.88E1,2.82E1,2.97E1,2.78E1,2.85E1,2.92E1,3.05E1,-4.9909924E1,-3.2980194E1,-4.8962426E0,1.6802168E1,4.4797832E1,7.332523E1,9.9035164E1,1.2684401E2],"split_indices":[3,3,3,3,3,3,3,0,0,0,0,0,0,0,0],"split_type":[0,0,0,0,0,0,0,0,0,0,0,0,0,0,0],"sum_hessian":[3.4138E4,2.3331E4,1.0807E4,2.0296E4,3.035E3,4.738E3,6.069E3,1.7388E4,2.908E3,1.555E3,1.48E3,1.941E3,2.797E3,4.155E3,1.914E3],"tree_param":{"num_deleted":"0","num_feature":"4","num_nodes":"15","size_leaf_vector":"1"}},{"base_weights":[3.4413293E-2,-3.651247E2,7.883294E2,-4.2737796E2,5.118611E1,5.5487885E2,9.704602E2,-4.453192E1,-2.6228743E1,-8.758905E0,1.2165076E1,4.3401974E1,6.886092E1,8.789737E1,1.1192008E2],"categories":[],"categories_nodes":[],"categories_segments":[],"categories_sizes":[],"default_left":[0,0,0,0,0,0,0,0,0,0,0,0,0,0,0],"id":5,"left_children":[1,3,5,7,9,11,13,-1,-1,-1,-1,-1,-1,-1,-1],"loss_changes":[9.827304E9,6.047104E8,4.5900186E8,6.000179E7,2.969892E7,7.62953E7,8.161485E7,0E0,0E0,0E0,0E0,0E0,0E0,0E0,0E0],"parents":[2147483647,0,0,1,1,2,2,3,3,4,4,5,5,6,6],"right_children":[2,4,6,8,10,12,14,-1,-1,-1,-1,-1,-1,-1,-1],"split_conditions":[2.88E1,2.82E1,2.97E1,2.79E1,2.84E1,2.93E1,3.04E1,-4.453192E1,-2.6228743E1,-8.758905E0,1.2165076E1,4.3401974E1,6.886092E1,8.789737E1,1.1192008E2],"split_indices":[3,3,3,3,3,3,3,0,0,0,0,0,0,0,0],"split_type":[0,0,0,0,0,0,0,0,0,0,0,0,0,0,0],"sum_hessian":[3.4138E4,2.3331E4,1.0807E4,2.0296E4,3.035E3,4.738E3,6.069E3,1.8305E4,1.991E3,1.022E3,2.013E3,2.491E3,2.247E3,3.762E3,2.307E3],"tree_param":{"num_deleted":"0","num_feature":"4","num_nodes":"15","size_leaf_vector":"1"}},{"base_weights":[3.8140565E-2,-3.5051865E2,6.658728E2,-3.9672168E2,-8.685134E1,3.6374667E2,8.222041E2,-4.2238266E1,-3.2237236E1,-1.8015343E1,2.3001115E0,2.39861E1,4.8027126E1,7.166039E1,9.6887985E1],"categories":[],"categories_nodes":[],"categories_segments":[],"categories_sizes":[],"default_left":[0,0,0,0,0,0,0,0,0,0,0,0,0,0,0],"id":6,"left_children":[1,3,5,7,9,11,13,-1,-1,-1,-1,-1,-1,-1,-1],"loss_changes":[7.9687153E9,2.7242112E8,5.5585485E8,3.617075E7,3.419635E7,5.787315E7,1.1948493E8,0E0,0E0,0E0,0E0,0E0,0E0,0E0,0E0],"parents":[2147483647,0,0,1,1,2,2,3,3,4,4,5,5,6,6],"right_children":[2,4,6,8,10,12,14,-1,-1,-1,-1,-1,-1,-1,-1],"split_conditions":[2.86E1,2.8E1,2.94E1,2.33E1,2.83E1,2.9E1,3.02E1,-4.2238266E1,-3.2237236E1,-1.8015343E1,2.3001115E0,2.39861E1,4.8027126E1,7.166039E1,9.6887985E1],"split_indices":[3,3,3,0,3,3,3,0,0,0,0,0,0,0,0],"split_type":[0,0,0,0,0,0,0,0,0,0,0,0,0,0,0],"sum_hessian":[3.4138E4,2.2364E4,1.1774E4,1.9029E4,3.335E3,4.016E3,7.758E3,1.4143E4,4.886E3,1.803E3,1.532E3,1.948E3,2.068E3,4.514E3,3.244E3],"tree_param":{"num_deleted":"0","num_feature":"4","num_nodes":"15","size_leaf_vector":"1"}},{"base_weights":[3.8743477E-2,-2.9601395E2,6.391488E2,-3.4632703E2,4.0448692E1,4.66668E2,8.0533887E2,-3.783306E1,-2.7483458E1,-3.7783978E0,1.2261587E1,3.2396587E1,5.488852E1,7.586505E1,1.0130371E2],"categories":[],"categories_nodes":[],"categories_segments":[],"categories_sizes":[],"default_left":[0,0,0,0,0,0,0,0,0,0,0,0,0,0,0],"id":7,"left_children":[1,3,5,7,9,11,13,-1,-1,-1,-1,-1,-1,-1,-1],"loss_changes":[6.459638E9,3.9498906E8,3.094308E8,4.6336E7,1.9520518E7,6.2075264E7,5.259443E7,0E0,0E0,0E0,0E0,0E0,0E0,0E0,0E0],"parents":[2147483647,0,0,1,1,2,2,3,3,4,4,5,5,6,6],"right_children":[2,4,6,8,10,12,14,-1,-1,-1,-1,-1,-1,-1,-1],"split_conditions":[2.88E1,2.82E1,2.98E1,2.75E1,2.85E1,2.92E1,3.08E1,-3.783306E1,-2.7483458E1,-3.7783978E0,1.2261587E1,3.2396587E1,5.488852E1,7.586505E1,1.0130371E2],"split_indices":[3,3,3,3,3,3,3,0,0,0,0,0,0,0,0],"split_type":[0,0,0,0,0,0,0,0,0,0,0,0,0,0,0],"sum_hessian":[3.4138E4,2.3331E4,1.0807E4,2.0296E4,3.035E3,5.305E3,5.502E3,1.4017E4,6.279E3,1.555E3,1.48E3,1.941E3,3.364E3,4.496E3,1.006E3],"tree_param":{"num_deleted":"0","num_feature":"4","num_nodes":"15","size_leaf_vector":"1"}},{"base_weights":[4.094524E-2,-2.757196E2,5.561674E2,-3.1722998E2,-1.6083284E1,3.7789447E2,7.10207E2,-3.3823322E1,-2.4399334E1,-9.290468E0,6.7792892E0,2.6234766E1,4.7897644E1,6.48491E1,8.4377426E1],"categories":[],"categories_nodes":[],"categories_segments":[],"categories_sizes":[],"default_left":[0,0,0,0,0,0,0,0,0,0,0,0,0,0,0],"id":8,"left_children":[1,3,5,7,9,11,13,-1,-1,-1,-1,-1,-1,-1,-1],"loss_changes":[5.235633E9,2.4597235E8,3.105088E8,3.0184704E7,2.0283946E7,6.116941E7,4.948915E7,0E0,0E0,0E0,0E0,0E0,0E0,0E0,0E0],"parents":[2147483647,0,0,1,1,2,2,3,3,4,4,5,5,6,6],"right_children":[2,4,6,8,10,12,14,-1,-1,-1,-1,-1,-1,-1,-1],"split_conditions":[2.87E1,2.81E1,2.97E1,2.34E1,2.84E1,2.92E1,3.05E1,-3.3823322E1,-2.4399334E1,-9.290468E0,6.7792892E0,2.6234766E1,4.7897644E1,6.48491E1,8.4377426E1],"split_indices":[3,3,3,0,3,3,3,0,0,0,0,0,0,0,0],"split_type":[0,0,0,0,0,0,0,0,0,0,0,0,0,0,0],"sum_hessian":[3.4138E4,2.2822E4,1.1316E4,1.9676E4,3.146E3,5.247E3,6.069E3,1.5288E4,4.388E3,1.642E3,1.504E3,2.45E3,2.797E3,4.155E3,1.914E3],"tree_param":{"num_deleted":"0","num_feature":"4","num_nodes":"15","size_leaf_vector":"1"}},{"base_weights":[4.16127E-2,-2.4001944E2,5.182785E2,-2.8550995E2,4.8811793E0,3.9234103E2,6.6987317E2,-3.0844608E1,-2.286541E1,-8.361987E0,7.7076983E0,2.8373823E1,4.71476E1,6.3097054E1,8.76272E1],"categories":[],"categories_nodes":[],"categories_segments":[],"categories_sizes":[],"default_left":[0,0,0,0,0,0,0,0,0,0,0,0,0,0,0],"id":9,"left_children":[1,3,5,7,9,11,13,-1,-1,-1,-1,-1,-1,-1,-1],"loss_changes":[4.2473062E9,2.599351E8,2.060777E8,2.5589376E7,2.3366106E7,5.0624E7,3.881549E7,0E0,0E0,0E0,0E0,0E0,0E0,0E0,0E0],"parents":[2147483647,0,0,1,1,2,2,3,3,4,4,5,5,6,6],"right_children":[2,4,6,8,10,12,14,-1,-1,-1,-1,-1,-1,-1,-1],"split_conditions":[2.88E1,2.81E1,2.99E1,2.75E1,2.84E1,2.93E1,5.2E0,-3.0844608E1,-2.286541E1,-8.361987E0,7.7076983E0,2.8373823E1,4.71476E1,6.3097054E1,8.76272E1],"split_indices":[3,3,3,3,3,3,1,0,0,0,0,0,0,0,0],"split_type":[0,0,0,0,0,0,0,0,0,0,0,0,0,0,0],"sum_hessian":[3.4138E4,2.3331E4,1.0807E4,1.9676E4,3.655E3,5.905E3,4.902E3,1.4017E4,5.659E3,1.642E3,2.013E3,2.491E3,3.414E3,4.128E3,7.74E2],"tree_param":{"num_deleted":"0","num_feature":"4","num_nodes":"15","size_leaf_vector":"1"}},{"base_weights":[4.249259E-2,-2.3041866E2,4.3777188E2,-2.6143234E2,-5.3433933E1,2.5722302E2,5.531998E2,-2.84157E1,-2.080384E1,1.2271416E0,-1.1875388E1,1.5374216E1,3.3334812E1,7.511492E1,5.1576557E1],"categories":[],"categories_nodes":[],"categories_segments":[],"categories_sizes":[],"default_left":[0,0,0,0,0,0,0,0,0,0,0,0,0,0,0],"id":10,"left_children":[1,3,5,7,9,11,13,-1,-1,-1,-1,-1,-1,-1,-1],"loss_changes":[3.4440305E9,1.227465E8,2.4525312E8,2.3030912E7,1.4319134E7,3.613795E7,5.2832E7,0E0,0E0,0E0,0E0,0E0,0E0,0E0,0E0],"parents":[2147483647,0,0,1,1,2,2,3,3,4,4,5,5,6,6],"right_children":[2,4,6,8,10,12,14,-1,-1,-1,-1,-1,-1,-1,-1],"split_conditions":[2.86E1,2.8E1,2.95E1,2.32E1,2.8E0,2.9E1,6.2E1,-2.84157E1,-2.080384E1,1.2271416E0,-1.1875388E1,1.5374216E1,3.3334812E1,7.511492E1,5.1576557E1],"split_indices":[3,3,3,0,1,3,2,0,0,0,0,0,0,0,0],"split_type":[0,0,0,0,0,0,0,0,0,0,0,0,0,0,0],"sum_hessian":[3.4138E4,2.2364E4,1.1774E4,1.9029E4,3.335E3,4.593E3,7.181E3,1.3345E4,5.684E3,1.663E3,1.672E3,1.948E3,2.645E3,1.139E3,6.042E3],"tree_param":{"num_deleted":"0","num_feature":"4","num_nodes":"15","size_leaf_vector":"1"}},{"base_weights":[4.1627157E-2,-1.9457268E2,4.201694E2,-2.2792235E2,2.8448679E1,3.2583893E2,5.6160065E2,-2.4796661E1,-1.6748297E1,9.351939E0,-2.6704578E0,2.2912474E1,3.8608574E1,5.2743465E1,7.404192E1],"categories":[],"categories_nodes":[],"categories_segments":[],"categories_sizes":[],"default_left":[0,0,0,0,0,0,0,0,0,0,0,0,0,0,0],"id":11,"left_children":[1,3,5,7,9,11,13,-1,-1,-1,-1,-1,-1,-1,-1],"loss_changes":[2.7913846E9,1.7354266E8,1.440096E8,2.4547456E7,1.0898282E7,3.770368E7,2.6020864E7,0E0,0E0,0E0,0E0,0E0,0E0,0E0,0E0],"parents":[2147483647,0,0,1,1,2,2,3,3,4,4,5,5,6,6],"right_children":[2,4,6,8,10,12,14,-1,-1,-1,-1,-1,-1,-1,-1],"split_conditions":[2.88E1,2.82E1,3E1,2.76E1,2.8E0,2.93E1,5.2E0,-2.4796661E1,-1.6748297E1,9.351939E0,-2.6704578E0,2.2912474E1,3.8608574E1,5.2743465E1,7.404192E1],"split_indices":[3,3,3,3,1,3,1,0,0,0,0,0,0,0,0],"split_type":[0,0,0,0,0,0,0,0,0,0,0,0,0,0,0],"sum_hessian":[3.4138E4,2.3331E4,1.0807E4,2.0296E4,3.035E3,6.485E3,4.322E3,1.5239E4,5.057E3,1.392E3,1.643E3,2.491E3,3.994E3,3.632E3,6.9E2],"tree_param":{"num_deleted":"0","num_feature":"4","num_nodes":"15","size_leaf_vector":"1"}},{"base_weights":[4.197054E-2,-1.8697594E2,3.5525687E2,-2.1209924E2,-4.360551E1,2.341235E2,4.690677E2,-2.2702744E1,-1.4565643E1,-9.548741E0,1.7476386E0,1.4092116E1,3.015956E1,4.344451E1,6.427118E1],"categories":[],"categories_nodes":[],"categories_segments":[],"categories_sizes":[],"default_left":[0,0,0,0,0,0,0,0,0,0,0,0,0,0,0],"id":12,"left_children":[1,3,5,7,9,11,13,-1,-1,-1,-1,-1,-1,-1,-1],"loss_changes":[2.2679729E9,8.054816E7,1.6222374E8,1.8842304E7,1.0573604E7,3.584E7,3.621363E7,0E0,0E0,0E0,0E0,0E0,0E0,0E0,0E0],"parents":[2147483647,0,0,1,1,2,2,3,3,4,4,5,5,6,6],"right_children":[2,4,6,8,10,12,14,-1,-1,-1,-1,-1,-1,-1,-1],"split_conditions":[2.86E1,2.8E1,2.97E1,2.35E1,2.83E1,2.91E1,3.08E1,-2.2702744E1,-1.4565643E1,-9.548741E0,1.7476386E0,1.4092116E1,3.015956E1,4.344451E1,6.427118E1],"split_indices":[3,3,3,0,3,3,3,0,0,0,0,0,0,0,0],"split_type":[0,0,0,0,0,0,0,0,0,0,0,0,0,0,0],"sum_hessian":[3.4138E4,2.2364E4,1.1774E4,1.9029E4,3.335E3,5.705E3,6.069E3,1.5536E4,3.493E3,1.803E3,1.532E3,2.397E3,3.308E3,5.063E3,1.006E3],"tree_param":{"num_deleted":"0","num_feature":"4","num_nodes":"15","size_leaf_vector":"1"}},{"base_weights":[4.090589E-2,-1.6828035E2,3.1974408E2,-1.93921E2,-5.2628582E1,1.723138E2,3.9603067E2,-2.1125479E1,-1.5154749E1,3.5726973E-1,-1.1006314E1,2.9393595E1,1.1166522E1,3.4144695E1,4.9521645E1],"categories":[],"categories_nodes":[],"categories_segments":[],"categories_sizes":[],"default_left":[0,0,0,0,0,0,0,0,0,0,0,0,0,0,0],"id":13,"left_children":[1,3,5,7,9,11,13,-1,-1,-1,-1,-1,-1,-1,-1],"loss_changes":[1.8371703E9,6.6310656E7,1.323648E8,1.3413632E7,1.310565E7,2.9597416E7,4.183744E7,0E0,0E0,0E0,0E0,0E0,0E0,0E0,0E0],"parents":[2147483647,0,0,1,1,2,2,3,3,4,4,5,5,6,6],"right_children":[2,4,6,8,10,12,14,-1,-1,-1,-1,-1,-1,-1,-1],"split_conditions":[2.86E1,2.79E1,2.94E1,2.32E1,2.8E0,2.4E0,3.03E1,-2.1125479E1,-1.5154749E1,3.5726973E-1,-1.1006314E1,2.9393595E1,1.1166522E1,3.4144695E1,4.9521645E1],"split_indices":[3,3,3,0,1,1,3,0,0,0,0,0,0,0,0],"split_type":[0,0,0,0,0,0,0,0,0,0,0,0,0,0,0],"sum_hessian":[3.4138E4,2.2364E4,1.1774E4,1.8305E4,4.059E3,4.016E3,7.758E3,1.2988E4,5.317E3,2.052E3,2.007E3,1.335E3,2.681E3,5.007E3,2.751E3],"tree_param":{"num_deleted":"0","num_feature":"4","num_nodes":"15","size_leaf_vector":"1"}},{"base_weights":[3.9078455E-2,-1.3819104E2,3.1785614E2,-1.6416335E2,4.4653328E1,2.4935661E2,4.1326678E2,-1.8538137E1,-1.2050163E1,1.1035208E1,3.7920296E-1,1.8922773E1,2.7987791E1,3.8254807E1,5.7417538E1],"categories":[],"categories_nodes":[],"categories_segments":[],"categories_sizes":[],"default_left":[0,0,0,0,0,0,0,0,0,0,0,0,0,0,0],"id":14,"left_children":[1,3,5,7,9,11,13,-1,-1,-1,-1,-1,-1,-1,-1],"loss_changes":[1.4998346E9,1.1299296E8,6.752723E7,1.9277632E7,7.9458075E6,1.1006016E7,2.1148544E7,0E0,0E0,0E0,0E0,0E0,0E0,0E0,0E0],"parents":[2147483647,0,0,1,1,2,2,3,3,4,4,5,5,6,6],"right_children":[2,4,6,8,10,12,14,-1,-1,-1,-1,-1,-1,-1,-1],"split_conditions":[2.89E1,2.83E1,3E1,2.75E1,2.4E0,2.93E1,5.2E0,-1.8538137E1,-1.2050163E1,1.1035208E1,3.7920296E-1,1.8922773E1,2.7987791E1,3.8254807E1,5.7417538E1],"split_indices":[3,3,3,3,1,3,1,0,0,0,0,0,0,0,0],"split_type":[0,0,0,0,0,0,0,0,0,0,0,0,0,0,0],"sum_hessian":[3.4138E4,2.3791E4,1.0347E4,2.0832E4,2.959E3,6.025E3,4.322E3,1.4017E4,6.815E3,1.134E3,1.825E3,2.031E3,3.994E3,3.632E3,6.9E2],"tree_param":{"num_deleted":"0","num_feature":"4","num_nodes":"15","size_leaf_vector":"1"}},{"base_weights":[3.8781915E-2,-1.24372734E2,2.860843E2,-1.5015489E2,2.5348278E1,2.2442876E2,3.7196216E2,-1.593946E1,-6.8806925E0,9.026107E0,-1.6173705E0,1.7031431E1,2.518971E1,3.445796E1,5.349513E1],"categories":[],"categories_nodes":[],"categories_segments":[],"categories_sizes":[],"default_left":[0,0,0,0,0,0,0,0,0,0,0,0,0,0,0],"id":15,"left_children":[1,3,5,7,9,11,13,-1,-1,-1,-1,-1,-1,-1,-1],"loss_changes":[1.2149523E9,9.1844E7,5.470771E7,1.5244896E7,9.424256E6,8.914336E6,1.9109504E7,0E0,0E0,0E0,0E0,0E0,0E0,0E0,0E0],"parents":[2147483647,0,0,1,1,2,2,3,3,4,4,5,5,6,6],"right_children":[2,4,6,8,10,12,14,-1,-1,-1,-1,-1,-1,-1,-1],"split_conditions":[2.89E1,2.82E1,3E1,2.38E1,2.4E0,2.93E1,3.1E1,-1.593946E1,-6.8806925E0,9.026107E0,-1.6173705E0,1.7031431E1,2.518971E1,3.445796E1,5.349513E1],"split_indices":[3,3,3,0,1,3,3,0,0,0,0,0,0,0,0],"split_type":[0,0,0,0,0,0,0,0,0,0,0,0,0,0,0],"sum_hessian":[3.4138E4,2.3791E4,1.0347E4,2.0296E4,3.495E3,6.025E3,4.322E3,1.8225E4,2.071E3,1.363E3,2.132E3,2.031E3,3.994E3,3.703E3,6.19E2],"tree_param":{"num_deleted":"0","num_feature":"4","num_nodes":"15","size_leaf_vector":"1"}},{"base_weights":[3.825995E-2,-1.1193612E2,2.5748843E2,-1.331958E2,3.7731068E1,2.075273E2,3.4446167E2,-1.5160156E1,-9.532237E0,1.3056781E1,1.5487307E0,1.6249964E1,2.3673306E1,3.1280313E1,4.764934E1],"categories":[],"categories_nodes":[],"categories_segments":[],"categories_sizes":[],"default_left":[0,0,0,0,0,0,0,0,0,0,0,0,0,0,0],"id":16,"left_children":[1,3,5,7,9,11,13,-1,-1,-1,-1,-1,-1,-1,-1],"loss_changes":[9.841819E8,7.570822E7,4.4893504E7,1.4508E7,6.110491E6,8.608096E6,1.5626016E7,0E0,0E0,0E0,0E0,0E0,0E0,0E0,0E0],"parents":[2147483647,0,0,1,1,2,2,3,3,4,4,5,5,6,6],"right_children":[2,4,6,8,10,12,14,-1,-1,-1,-1,-1,-1,-1,-1],"split_conditions":[2.89E1,2.83E1,3.01E1,2.75E1,2.24E1,2.94E1,5.1E0,-1.5160156E1,-9.532237E0,1.3056781E1,1.5487307E0,1.6249964E1,2.3673306E1,3.1280313E1,4.764934E1],"split_indices":[3,3,3,3,0,3,1,0,0,0,0,0,0,0,0],"split_type":[0,0,0,0,0,0,0,0,0,0,0,0,0,0,0],"sum_hessian":[3.4138E4,2.3791E4,1.0347E4,2.0832E4,2.959E3,6.574E3,3.773E3,1.4017E4,6.815E3,5.71E2,2.388E3,2.589E3,3.985E3,3.046E3,7.27E2],"tree_param":{"num_deleted":"0","num_feature":"4","num_nodes":"15","size_leaf_vector":"1"}},{"base_weights":[3.7615694E-2,-1.1096288E2,2.1086786E2,-1.2856078E2,-3.1588966E1,1.4436984E2,2.866322E2,-1.3913643E1,-7.968967E0,1.6319011E0,-8.055485E0,2.2563375E1,1.0975234E1,4.1241215E1,2.5543585E1],"categories":[],"categories_nodes":[],"categories_segments":[],"categories_sizes":[],"default_left":[0,0,0,0,0,0,0,0,0,0,0,0,0,0,0],"id":17,"left_children":[1,3,5,7,9,11,13,-1,-1,-1,-1,-1,-1,-1,-1],"loss_changes":[7.989533E8,3.1235712E7,5.928317E7,9.45024E6,9.525492E6,1.7622136E7,2.1487712E7,0E0,0E0,0E0,0E0,0E0,0E0,0E0,0E0],"parents":[2147483647,0,0,1,1,2,2,3,3,4,4,5,5,6,6],"right_children":[2,4,6,8,10,12,14,-1,-1,-1,-1,-1,-1,-1,-1],"split_conditions":[2.86E1,2.79E1,2.98E1,2.35E1,2.8E0,2.4E0,6.2E1,-1.3913643E1,-7.968967E0,1.6319011E0,-8.055485E0,2.2563375E1,1.0975234E1,4.1241215E1,2.5543585E1],"split_indices":[3,3,3,0,1,1,2,0,0,0,0,0,0,0,0],"split_type":[0,0,0,0,0,0,0,0,0,0,0,0,0,0,0],"sum_hessian":[3.4138E4,2.2364E4,1.1774E4,1.8305E4,4.059E3,6.272E3,5.502E3,1.5047E4,3.258E3,2.052E3,2.007E3,1.872E3,4.4E3,1.091E3,4.411E3],"tree_param":{"num_deleted":"0","num_feature":"4","num_nodes":"15","size_leaf_vector":"1"}},{"base_weights":[3.595754E-2,-9.122442E1,2.0986075E2,-1.1399515E2,-2.2754373E-1,3.6473956E2,1.9019135E2,-1.2130143E1,-4.441751E0,1.7085485E1,-1.2753236E0,2.2668425E1,4.045445E1,1.782215E1,3.7813564E1],"categories":[],"categories_nodes":[],"categories_segments":[],"categories_sizes":[],"default_left":[0,0,0,0,0,0,0,0,0,0,0,0,0,0,0],"id":18,"left_children":[1,3,5,7,9,11,13,-1,-1,-1,-1,-1,-1,-1,-1],"loss_changes":[6.5373626E8,4.929853E7,3.1454496E7,9.668576E6,1.0208931E7,6.310288E6,2.0593536E7,0E0,0E0,0E0,0E0,0E0,0E0,0E0,0E0],"parents":[2147483647,0,0,1,1,2,2,3,3,4,4,5,5,6,6],"right_children":[2,4,6,8,10,12,14,-1,-1,-1,-1,-1,-1,-1,-1],"split_conditions":[2.89E1,2.8E1,6.2E1,2.38E1,6.8E1,3.8E0,3.08E1,-1.2130143E1,-4.441751E0,1.7085485E1,-1.2753236E0,2.2668425E1,4.045445E1,1.782215E1,3.7813564E1],"split_indices":[3,3,2,0,2,1,3,0,0,0,0,0,0,0,0],"split_type":[0,0,0,0,0,0,0,0,0,0,0,0,0,0,0],"sum_hessian":[3.4138E4,2.3791E4,1.0347E4,1.9029E4,4.762E3,1.164E3,9.183E3,1.722E4,1.809E3,3.24E2,4.438E3,2.62E2,9.02E2,8.635E3,5.48E2],"tree_param":{"num_deleted":"0","num_feature":"4","num_nodes":"15","size_leaf_vector":"1"}},{"base_weights":[3.580872E-2,-8.210201E1,1.8888611E2,-9.772654E1,2.789389E1,1.5828185E2,2.733017E2,-1.0422293E1,-2.3841064E0,7.6099586E0,-2.0849481E-1,1.4458943E1,2.6481714E1,1.8940046E1,3.3007534E1],"categories":[],"categories_nodes":[],"categories_segments":[],"categories_sizes":[],"default_left":[0,0,0,0,0,0,0,0,0,0,0,0,0,0,0],"id":19,"left_children":[1,3,5,7,9,11,13,-1,-1,-1,-1,-1,-1,-1,-1],"loss_changes":[5.2957123E8,4.0892464E7,2.669056E7,9.997104E6,4.277805E6,1.1043648E7,1.3046288E7,0E0,0E0,0E0,0E0,0E0,0E0,0E0,0E0],"parents":[2147483647,0,0,1,1,2,2,3,3,4,4,5,5,6,6],"right_children":[2,4,6,8,10,12,14,-1,-1,-1,-1,-1,-1,-1,-1],"split_conditions":[2.89E1,2.83E1,3.03E1,2.39E1,2.4E0,5.2E0,4.1E0,-1.0422293E1,-2.3841064E0,7.6099586E0,-2.0849481E-1,1.4458943E1,2.6481714E1,1.8940046E1,3.3007534E1],"split_indices":[3,3,3,0,1,1,1,0,0,0,0,0,0,0,0],"split_type":[0,0,0,0,0,0,0,0,0,0,0,0,0,0,0],"sum_hessian":[3.4138E4,2.3791E4,1.0347E4,2.0832E4,2.959E3,7.596E3,2.751E3,1.9148E4,1.684E3,1.134E3,1.825E3,6.733E3,8.63E2,1.112E3,1.639E3],"tree_param":{"num_deleted":"0","num_feature":"4","num_nodes":"15","size_leaf_vector":"1"}},{"base_weights":[3.4781903E-2,-7.6266754E1,1.6475233E2,-9.275682E1,-3.3217654E0,1.1975377E2,2.189226E2,-1.0570607E1,-6.2341094E0,7.6503525E0,-2.8562143E0,1.9180342E1,8.993287E0,1.946463E1,3.4797802E1],"categories":[],"categories_nodes":[],"categories_segments":[],"categories_sizes":[],"default_left":[0,0,0,0,0,0,0,0,0,0,0,0,0,0,0],"id":20,"left_children":[1,3,5,7,9,11,13,-1,-1,-1,-1,-1,-1,-1,-1],"loss_changes":[4.2907843E8,2.8065008E7,2.63192E7,7.488576E6,8.671957E6,1.2672296E7,1.5293296E7,0E0,0E0,0E0,0E0,0E0,0E0,0E0,0E0],"parents":[2147483647,0,0,1,1,2,2,3,3,4,4,5,5,6,6],"right_children":[2,4,6,8,10,12,14,-1,-1,-1,-1,-1,-1,-1,-1],"split_conditions":[2.88E1,2.8E1,2.99E1,2.32E1,2.26E1,2.5E0,5.2E0,-1.0570607E1,-6.2341094E0,7.6503525E0,-2.8562143E0,1.9180342E1,8.993287E0,1.946463E1,3.4797802E1],"split_indices":[3,3,3,0,0,1,1,0,0,0,0,0,0,0,0],"split_type":[0,0,0,0,0,0,0,0,0,0,0,0,0,0,0],"sum_hessian":[3.4138E4,2.3331E4,1.0807E4,1.9029E4,4.302E3,5.905E3,4.902E3,1.3345E4,5.684E3,1.033E3,3.269E3,1.727E3,4.178E3,4.128E3,7.74E2],"tree_param":{"num_deleted":"0","num_feature":"4","num_nodes":"15","size_leaf_vector":"1"}},{"base_weights":[3.33666E-2,-7.580252E1,1.3489386E2,1.23386154E2,-7.8505974E1,7.0999916E1,1.8030899E2,4.956113E1,1.0151929E1,-8.476218E0,-1.2932181E0,1.4424059E1,2.9495316E0,1.607411E1,2.908393E1],"categories":[],"categories_nodes":[],"categories_segments":[],"categories_sizes":[],"default_left":[0,0,0,0,0,0,0,0,0,0,0,0,0,0,0],"id":21,"left_children":[1,3,5,7,9,11,13,-1,-1,-1,-1,-1,-1,-1,-1],"loss_changes":[3.4915885E8,1.1776936E7,3.5643904E7,2.3345295E6,8.843728E6,1.552013E7,1.5486832E7,0E0,0E0,0E0,0E0,0E0,0E0,0E0,0E0],"parents":[2147483647,0,0,1,1,2,2,3,3,4,4,5,5,6,6],"right_children":[2,4,6,8,10,12,14,-1,-1,-1,-1,-1,-1,-1,-1],"split_conditions":[2.85E1,6.9E1,2.95E1,4E-1,2.39E1,2.6E0,5.2E0,4.956113E1,1.0151929E1,-8.476218E0,-1.2932181E0,1.4424059E1,2.9495316E0,1.607411E1,2.908393E1],"split_indices":[3,2,3,1,0,1,1,0,0,0,0,0,0,0,0],"split_type":[0,0,0,0,0,0,0,0,0,0,0,0,0,0,0],"sum_hessian":[3.4138E4,2.1851E4,1.2287E4,2.92E2,2.1559E4,5.106E3,7.181E3,1.5E1,2.77E2,1.9681E4,1.878E3,1.846E3,3.26E3,6.103E3,1.078E3],"tree_param":{"num_deleted":"0","num_feature":"4","num_nodes":"15","size_leaf_vector":"1"}},{"base_weights":[3.3300914E-2,-5.815239E1,1.4399063E2,-7.723727E1,7.7301515E-3,2.616277E2,1.2815417E2,-9.175053E0,-5.813411E0,4.763395E0,-4.365344E0,1.5248828E1,2.9312494E1,1.2089083E1,3.28843E1],"categories":[],"categories_nodes":[],"categories_segments":[],"categories_sizes":[],"default_left":[0,0,0,0,0,0,0,0,0,0,0,0,0,0,0],"id":22,"left_children":[1,3,5,7,9,11,13,-1,-1,-1,-1,-1,-1,-1,-1],"loss_changes":[2.8596538E8,2.698692E7,1.8273712E7,5.069976E6,1.2495214E7,3.960104E6,1.2588096E7,0E0,0E0,0E0,0E0,0E0,0E0,0E0,0E0],"parents":[2147483647,0,0,1,1,2,2,3,3,4,4,5,5,6,6],"right_children":[2,4,6,8,10,12,14,-1,-1,-1,-1,-1,-1,-1,-1],"split_conditions":[2.9E1,2.79E1,6.2E1,2.29E1,2.8E0,3.8E0,3.1E1,-9.175053E0,-5.813411E0,4.763395E0,-4.365344E0,1.5248828E1,2.9312494E1,1.2089083E1,3.28843E1],"split_indices":[3,3,2,0,1,1,3,0,0,0,0,0,0,0,0],"split_type":[0,0,0,0,0,0,0,0,0,0,0,0,0,0,0],"sum_hessian":[3.4138E4,2.4312E4,9.826E3,1.8305E4,6.007E3,1.164E3,8.662E3,1.04E4,7.905E3,2.873E3,3.134E3,2.62E2,9.02E2,8.361E3,3.01E2],"tree_param":{"num_deleted":"0","num_feature":"4","num_nodes":"15","size_leaf_vector":"1"}},{"base_weights":[3.2162044E-2,-5.4372105E1,1.25117805E2,-6.4964905E1,2.0200289E1,1.1007448E2,2.3066232E2,-7.6651645E0,-4.0920076E0,9.219885E0,2.9531667E-1,9.740054E0,1.9891893E1,2.0022554E1,3.926552E1],"categories":[],"categories_nodes":[],"categories_segments":[],"categories_sizes":[],"default_left":[0,0,0,0,0,0,0,0,0,0,0,0,0,0,0],"id":23,"left_children":[1,3,5,7,9,11,13,-1,-1,-1,-1,-1,-1,-1,-1],"loss_changes":[2.3232926E8,1.8795344E7,1.640456E7,5.851056E6,3.6753605E6,1.0181144E7,6.281776E6,0E0,0E0,0E0,0E0,0E0,0E0,0E0,0E0],"parents":[2147483647,0,0,1,1,2,2,3,3,4,4,5,5,6,6],"right_children":[2,4,6,8,10,12,14,-1,-1,-1,-1,-1,-1,-1,-1],"split_conditions":[2.89E1,2.83E1,3.07E1,2.75E1,2.24E1,5.2E0,3.14E1,-7.6651645E0,-4.0920076E0,9.219885E0,2.9531667E-1,9.740054E0,1.9891893E1,2.0022554E1,3.926552E1],"split_indices":[3,3,3,3,0,1,3,0,0,0,0,0,0,0,0],"split_type":[0,0,0,0,0,0,0,0,0,0,0,0,0,0,0],"sum_hessian":[3.4138E4,2.3791E4,1.0347E4,2.0832E4,2.959E3,9.058E3,1.289E3,1.4017E4,6.815E3,5.71E2,2.388E3,7.929E3,1.129E3,1.087E3,2.02E2],"tree_param":{"num_deleted":"0","num_feature":"4","num_nodes":"15","size_leaf_vector":"1"}},{"base_weights":[3.149037E-2,-4.5738293E1,1.2088363E2,-5.8468983E1,2.1758968E1,2.1747057E2,1.0718331E2,-6.401235E0,-1.1394438E0,7.294273E0,-8.1964314E-1,1.2089843E1,2.4524958E1,9.852573E0,2.2789454E1],"categories":[],"categories_nodes":[],"categories_segments":[],"categories_sizes":[],"default_left":[0,0,0,0,0,0,0,0,0,0,0,0,0,0,0],"id":24,"left_children":[1,3,5,7,9,11,13,-1,-1,-1,-1,-1,-1,-1,-1],"loss_changes":[1.8884117E8,2.1278932E7,1.2386336E7,5.435672E6,6.026191E6,3.092984E6,8.562768E6,0E0,0E0,0E0,0E0,0E0,0E0,0E0,0E0],"parents":[2147483647,0,0,1,1,2,2,3,3,4,4,5,5,6,6],"right_children":[2,4,6,8,10,12,14,-1,-1,-1,-1,-1,-1,-1,-1],"split_conditions":[2.91E1,2.83E1,6.2E1,2.38E1,2.4E0,3.8E0,3.08E1,-6.401235E0,-1.1394438E0,7.294273E0,-8.1964314E-1,1.2089843E1,2.4524958E1,9.852573E0,2.2789454E1],"split_indices":[3,3,2,0,1,1,3,0,0,0,0,0,0,0,0],"split_type":[0,0,0,0,0,0,0,0,0,0,0,0,0,0,0],"sum_hessian":[3.4138E4,2.4761E4,9.377E3,2.0832E4,3.929E3,1.163E3,8.214E3,1.8637E4,2.195E3,1.45E3,2.479E3,2.61E2,9.02E2,7.666E3,5.48E2],"tree_param":{"num_deleted":"0","num_feature":"4","num_nodes":"15","size_leaf_vector":"1"}},{"base_weights":[3.0349484E-2,-5.0253788E1,8.945165E1,7.294869E1,-5.3367043E1,4.8552177E1,1.2437055E2,1.8189304E1,3.1630552E0,-5.82933E0,-2.3824184E-1,1.1355922E1,1.3172413E0,1.0729104E1,2.1915625E1],"categories":[],"categories_nodes":[],"categories_segments":[],"categories_sizes":[],"default_left":[0,0,0,0,0,0,0,0,0,0,0,0,0,0,0],"id":25,"left_children":[1,3,5,7,9,11,13,-1,-1,-1,-1,-1,-1,-1,-1],"loss_changes":[1.535096E8,8.385452E6,1.7543248E7,2.420489E6,5.353164E6,1.3018429E7,1.0706504E7,0E0,0E0,0E0,0E0,0E0,0E0,0E0,0E0],"parents":[2147483647,0,0,1,1,2,2,3,3,4,4,5,5,6,6],"right_children":[2,4,6,8,10,12,14,-1,-1,-1,-1,-1,-1,-1,-1],"split_conditions":[2.85E1,7E1,2.96E1,6.8E1,2.39E1,2.6E0,5.2E0,1.8189304E1,3.1630552E0,-5.82933E0,-2.3824184E-1,1.1355922E1,1.3172413E0,1.0729104E1,2.1915625E1],"split_indices":[3,2,3,2,0,1,1,0,0,0,0,0,0,0,0],"split_type":[0,0,0,0,0,0,0,0,0,0,0,0,0,0,0],"sum_hessian":[3.4138E4,2.1851E4,1.2287E4,5.38E2,2.1313E4,5.66E3,6.627E3,1.47E2,3.91E2,1.9435E4,1.878E3,1.994E3,3.666E3,5.617E3,1.01E3],"tree_param":{"num_deleted":"0","num_feature":"4","num_nodes":"15","size_leaf_vector":"1"}},{"base_weights":[2.9102812E-2,-3.7334293E1,9.8684715E1,-5.4625423E1,-3.5071702E0,9.2653915E1,2.928817E2,-6.709986E0,-3.5230596E0,3.5054212E0,-3.9659886E0,1.6406607E1,8.101386E0,2.6873722E1,5.1095974E1],"categories":[],"categories_nodes":[],"categories_segments":[],"categories_sizes":[],"default_left":[0,0,0,0,0,0,0,0,0,0,0,0,0,0,0],"id":26,"left_children":[1,3,5,7,9,11,13,-1,-1,-1,-1,-1,-1,-1,-1],"loss_changes":[1.2584374E8,1.4483328E7,1.095604E7,3.96206E6,1.1679755E7,7.548504E6,1.347524E6,0E0,0E0,0E0,0E0,0E0,0E0,0E0,0E0],"parents":[2147483647,0,0,1,1,2,2,3,3,4,4,5,5,6,6],"right_children":[2,4,6,8,10,12,14,-1,-1,-1,-1,-1,-1,-1,-1],"split_conditions":[2.91E1,2.77E1,3.13E1,7.9E1,2.8E0,2.21E1,5.3E0,-6.709986E0,-3.5230596E0,3.5054212E0,-3.9659886E0,1.6406607E1,8.101386E0,2.6873722E1,5.1095974E1],"split_indices":[3,3,3,2,1,0,1,0,0,0,0,0,0,0,0],"split_type":[0,0,0,0,0,0,0,0,0,0,0,0,0,0,0],"sum_hessian":[3.4138E4,2.4761E4,9.377E3,1.6385E4,8.376E3,9.096E3,2.81E2,9.97E3,6.415E3,4.053E3,4.323E3,1.273E3,7.823E3,2.55E2,2.6E1],"tree_param":{"num_deleted":"0","num_feature":"4","num_nodes":"15","size_leaf_vector":"1"}},{"base_weights":[2.8887719E-2,-4.1112717E1,7.319183E1,6.8758514E1,-4.388927E1,2.809004E1,9.472257E1,1.6542912E1,3.208503E0,-5.600724E0,-2.8133006E0,1.2336061E1,4.808134E-1,8.877505E0,2.6386997E1],"categories":[],"categories_nodes":[],"categories_segments":[],"categories_sizes":[],"default_left":[0,0,0,0,0,0,0,0,0,0,0,0,0,0,0],"id":27,"left_children":[1,3,5,7,9,11,13,-1,-1,-1,-1,-1,-1,-1,-1],"loss_changes":[1.027628E8,6.66926E6,1.1929916E7,1.9055808E6,4.067988E6,8.809622E6,8.343536E6,0E0,0E0,0E0,0E0,0E0,0E0,0E0,0E0],"parents":[2147483647,0,0,1,1,2,2,3,3,4,4,5,5,6,6],"right_children":[2,4,6,8,10,12,14,-1,-1,-1,-1,-1,-1,-1,-1],"split_conditions":[2.85E1,7E1,2.93E1,6.8E1,7.8E1,1.2E0,3.13E1,1.6542912E1,3.208503E0,-5.600724E0,-2.8133006E0,1.2336061E1,4.808134E-1,8.877505E0,2.6386997E1],"split_indices":[3,2,3,2,2,1,3,0,0,0,0,0,0,0,0],"split_type":[0,0,0,0,0,0,0,0,0,0,0,0,0,0,0],"sum_hessian":[3.4138E4,2.1851E4,1.2287E4,5.38E2,2.1313E4,3.971E3,8.316E3,1.47E2,3.91E2,1.2046E4,9.267E3,7.79E2,3.192E3,8.035E3,2.81E2],"tree_param":{"num_deleted":"0","num_feature":"4","num_nodes":"15","size_leaf_vector":"1"}},{"base_weights":[2.7743591E-2,-3.13845E1,7.7744835E1,5.626145E1,-3.6037243E1,1.55277E2,6.730933E1,1.1070528E1,2.3988237E0,-3.6935685E0,2.2281576E1,7.221645E0,1.7929655E1,4.8787246E0,1.150442E1],"categories":[],"categories_nodes":[],"categories_segments":[],"categories_sizes":[],"default_left":[0,0,0,0,0,0,0,0,0,0,0,0,0,0,0],"id":28,"left_children":[1,3,5,7,9,11,13,-1,-1,-1,-1,-1,-1,-1,-1],"loss_changes":[8.33449E7,9.916726E6,7.94044E6,2.1515218E6,5.377664E6,2.311316E6,7.653772E6,0E0,0E0,0E0,0E0,0E0,0E0,0E0,0E0],"parents":[2147483647,0,0,1,1,2,2,3,3,4,4,5,5,6,6],"right_children":[2,4,6,8,10,12,14,-1,-1,-1,-1,-1,-1,-1,-1],"split_conditions":[2.9E1,7E1,6.2E1,6.8E1,5.5E0,3.8E0,2.37E1,1.1070528E1,2.3988237E0,-3.6935685E0,2.2281576E1,7.221645E0,1.7929655E1,4.8787246E0,1.150442E1],"split_indices":[3,2,2,2,1,1,0,0,0,0,0,0,0,0,0],"split_type":[0,0,0,0,0,0,0,0,0,0,0,0,0,0,0],"sum_hessian":[3.4138E4,2.4312E4,9.826E3,1.225E3,2.3087E4,1.164E3,8.662E3,4.55E2,7.7E2,2.3008E4,7.9E1,2.62E2,9.02E2,6.242E3,2.42E3],"tree_param":{"num_deleted":"0","num_feature":"4","num_nodes":"15","size_leaf_vector":"1"}},{"base_weights":[2.7127149E-2,-3.4744274E1,5.7845665E1,1.928993E1,-3.876452E1,4.8459236E1,1.4997394E2,-4.0539265E0,5.9583344E0,-5.403283E0,-2.3306499E0,3.8777092E0,1.1969112E1,1.4426267E1,8.066206E1],"categories":[],"categories_nodes":[],"categories_segments":[],"categories_sizes":[],"default_left":[0,0,0,0,0,0,0,0,0,0,0,0,0,0,0],"id":29,"left_children":[1,3,5,7,9,11,13,-1,-1,-1,-1,-1,-1,-1,-1],"loss_changes":[6.863613E7,4.631894E6,1.1079764E7,3.5630522E6,4.68204E6,8.021136E6,4.327714E6,0E0,0E0,0E0,0E0,0E0,0E0,0E0,0E0],"parents":[2147483647,0,0,1,1,2,2,3,3,4,4,5,5,6,6],"right_children":[2,4,6,8,10,12,14,-1,-1,-1,-1,-1,-1,-1,-1],"split_conditions":[2.84E1,7.2E1,5.3E0,2.76E1,2.29E1,3.06E1,7.5E1,-4.0539265E0,5.9583344E0,-5.403283E0,-2.3306499E0,3.8777092E0,1.1969112E1,1.4426267E1,8.066206E1],"split_indices":[3,2,1,3,0,3,2,0,0,0,0,0,0,0,0],"split_type":[0,0,0,0,0,0,0,0,0,0,0,0,0,0,0],"sum_hessian":[3.4138E4,2.1318E4,1.282E4,1.476E3,1.9842E4,1.1636E4,1.184E3,5.94E2,8.82E2,9.981E3,9.861E3,1.0245E4,1.391E3,1.175E3,9E0],"tree_param":{"num_deleted":"0","num_feature":"4","num_nodes":"15","size_leaf_vector":"1"}},{"base_weights":[2.7504249E-2,-2.4046944E1,6.864524E1,-4.0402924E1,-3.675394E0,6.1952774E1,1.991754E2,-5.1000624E0,-2.5876439E0,3.1476538E0,-2.987255E0,5.558435E0,1.7149895E1,1.5380786E1,2.6183546E1],"categories":[],"categories_nodes":[],"categories_segments":[],"categories_sizes":[],"default_left":[0,0,0,0,0,0,0,0,0,0,0,0,0,0,0],"id":30,"left_children":[1,3,5,7,9,11,13,-1,-1,-1,-1,-1,-1,-1,-1],"loss_changes":[5.6397036E7,8.420732E6,7.733596E6,2.156712E6,1.0366373E7,5.875734E6,1.187788E6,0E0,0E0,0E0,0E0,0E0,0E0,0E0,0E0],"parents":[2147483647,0,0,1,1,2,2,3,3,4,4,5,5,6,6],"right_children":[2,4,6,8,10,12,14,-1,-1,-1,-1,-1,-1,-1,-1],"split_conditions":[2.92E1,2.75E1,5.7E0,7.9E1,2.4E0,3.11E1,6E0,-5.1000624E0,-2.5876439E0,3.1476538E0,-2.987255E0,5.558435E0,1.7149895E1,1.5380786E1,2.6183546E1],"split_indices":[3,3,1,2,1,3,1,0,0,0,0,0,0,0,0],"split_type":[0,0,0,0,0,0,0,0,0,0,0,0,0,0,0],"sum_hessian":[3.4138E4,2.5272E4,8.866E3,1.4017E4,1.1255E4,8.435E3,4.31E2,8.103E3,5.914E3,4.806E3,6.449E3,7.973E3,4.62E2,2.52E2,1.79E2],"tree_param":{"num_deleted":"0","num_feature":"4","num_nodes":"15","size_leaf_vector":"1"}},{"base_weights":[2.6426101E-2,-2.7651958E1,4.9247456E1,2.1041372E1,-3.170052E1,4.1009827E1,1.27196335E2,-5.017804E0,4.3371534E0,-4.470594E0,-1.6390337E0,1.6477957E1,3.7100892E0,1.2186992E1,7.350042E1],"categories":[],"categories_nodes":[],"categories_segments":[],"categories_sizes":[],"default_left":[0,0,0,0,0,0,0,0,0,0,0,0,0,0,0],"id":31,"left_children":[1,3,5,7,9,11,13,-1,-1,-1,-1,-1,-1,-1,-1],"loss_changes":[4.651092E7,4.308525E6,7.88508E6,2.6707685E6,4.01642E6,5.371416E6,3.711178E6,0E0,0E0,0E0,0E0,0E0,0E0,0E0,0E0],"parents":[2147483647,0,0,1,1,2,2,3,3,4,4,5,5,6,6],"right_children":[2,4,6,8,10,12,14,-1,-1,-1,-1,-1,-1,-1,-1],"split_conditions":[2.85E1,7.2E1,5.3E0,2.74E1,7.8E1,6E1,7.5E1,-5.017804E0,4.3371534E0,-4.470594E0,-1.6390337E0,1.6477957E1,3.7100892E0,1.2186992E1,7.350042E1],"split_indices":[3,2,1,3,2,2,2,0,0,0,0,0,0,0,0],"split_type":[0,0,0,0,0,0,0,0,0,0,0,0,0,0,0],"sum_hessian":[3.4138E4,2.1851E4,1.2287E4,1.677E3,2.0174E4,1.1114E4,1.173E3,4E2,1.277E3,1.0907E4,9.267E3,3.39E2,1.0775E4,1.164E3,9E0],"tree_param":{"num_deleted":"0","num_feature":"4","num_nodes":"15","size_leaf_vector":"1"}},{"base_weights":[2.6668688E-2,-1.982209E1,5.660022E1,-2.2416052E1,8.0858925E1,5.093004E1,1.6719522E2,3.2420971E0,-2.634308E0,1.6612734E1,-2.5786333E0,4.7196283E0,2.0603857E1,1.2634898E1,2.2367804E1],"categories":[],"categories_nodes":[],"categories_segments":[],"categories_sizes":[],"default_left":[0,0,0,0,0,0,0,0,0,0,0,0,0,0,0],"id":32,"left_children":[1,3,5,7,9,11,13,-1,-1,-1,-1,-1,-1,-1,-1],"loss_changes":[3.833631E7,6.602178E6,5.551922E6,5.306777E6,5.7786385E6,4.875884E6,9.6841E5,0E0,0E0,0E0,0E0,0E0,0E0,0E0,0E0],"parents":[2147483647,0,0,1,1,2,2,3,3,4,4,5,5,6,6],"right_children":[2,4,6,8,10,12,14,-1,-1,-1,-1,-1,-1,-1,-1],"split_conditions":[2.92E1,2.44E1,5.7E0,7E1,1.9E0,3.14E1,6E0,3.2420971E0,-2.634308E0,1.6612734E1,-2.5786333E0,4.7196283E0,2.0603857E1,1.2634898E1,2.2367804E1],"split_indices":[3,0,1,2,1,3,1,0,0,0,0,0,0,0,0],"split_type":[0,0,0,0,0,0,0,0,0,0,0,0,0,0,0],"sum_hessian":[3.4138E4,2.5272E4,8.866E3,2.4638E4,6.34E2,8.435E3,4.31E2,1.646E3,2.2992E4,3.52E2,2.82E2,8.238E3,1.97E2,2.52E2,1.79E2],"tree_param":{"num_deleted":"0","num_feature":"4","num_nodes":"15","size_leaf_vector":"1"}},{"base_weights":[2.6182715E-2,-2.3457148E1,3.9074703E1,1.5237369E2,-2.4259678E1,2.3786825E1,6.912157E1,6.800364E1,1.037773E1,-1.0749865E0,-3.4097424E0,5.8018126E0,6.222141E-1,2.3234007E0,1.0241512E1],"categories":[],"categories_nodes":[],"categories_segments":[],"categories_sizes":[],"default_left":[0,0,0,0,0,0,0,0,0,0,0,0,0,0,0],"id":33,"left_children":[1,3,5,7,9,11,13,-1,-1,-1,-1,-1,-1,-1,-1],"loss_changes":[3.1306012E7,3.012018E6,5.887718E6,2.4167505E6,2.8203E6,5.109765E6,6.602124E6,0E0,0E0,0E0,0E0,0E0,0E0,0E0,0E0],"parents":[2147483647,0,0,1,1,2,2,3,3,4,4,5,5,6,6],"right_children":[2,4,6,8,10,12,14,-1,-1,-1,-1,-1,-1,-1,-1],"split_conditions":[2.84E1,6.8E1,3E1,5E-1,1.5E0,2.7E0,4.1E0,6.800364E1,1.037773E1,-1.0749865E0,-3.4097424E0,5.8018126E0,6.222141E-1,2.3234007E0,1.0241512E1],"split_indices":[3,2,3,1,1,1,1,0,0,0,0,0,0,0,0],"split_type":[0,0,0,0,0,0,0,0,0,0,0,0,0,0,0],"sum_hessian":[3.4138E4,2.1318E4,1.282E4,9.6E1,2.1222E4,8.498E3,4.322E3,7E0,8.9E1,8.943E3,1.2279E4,2.881E3,5.617E3,1.818E3,2.504E3],"tree_param":{"num_deleted":"0","num_feature":"4","num_nodes":"15","size_leaf_vector":"1"}},{"base_weights":[2.6287258E-2,-1.628127E1,4.650659E1,-1.8570097E1,7.255444E1,1.27416336E2,3.9899063E1,-2.0031345E0,9.7309675E0,1.4862994E1,-2.2594707E0,-1.1239119E1,1.3308837E1,3.5060043E0,1.5268638E1],"categories":[],"categories_nodes":[],"categories_segments":[],"categories_sizes":[],"default_left":[0,0,0,0,0,0,0,0,0,0,0,0,0,0,0],"id":34,"left_children":[1,3,5,7,9,11,13,-1,-1,-1,-1,-1,-1,-1,-1],"loss_changes":[2.5877442E7,5.1400945E6,4.735334E6,4.174045E6,4.599818E6,9.24927E5,4.469498E6,0E0,0E0,0E0,0E0,0E0,0E0,0E0,0E0],"parents":[2147483647,0,0,1,1,2,2,3,3,4,4,5,5,6,6],"right_children":[2,4,6,8,10,12,14,-1,-1,-1,-1,-1,-1,-1,-1],"split_conditions":[2.92E1,2.44E1,2.18E1,5.3E0,1.9E0,2.09E1,5.7E0,-2.0031345E0,9.7309675E0,1.4862994E1,-2.2594707E0,-1.1239119E1,1.3308837E1,3.5060043E0,1.5268638E1],"split_indices":[3,0,0,1,1,0,1,0,0,0,0,0,0,0,0],"split_type":[0,0,0,0,0,0,0,0,0,0,0,0,0,0,0],"sum_hessian":[3.4138E4,2.5272E4,8.866E3,2.4638E4,6.34E2,6.68E2,8.198E3,2.4332E4,3.06E2,3.52E2,2.82E2,1.5E1,6.53E2,7.862E3,3.36E2],"tree_param":{"num_deleted":"0","num_feature":"4","num_nodes":"15","size_leaf_vector":"1"}},{"base_weights":[2.4853297E-2,-1.937321E1,3.228032E1,2.2082697E1,-2.2457977E1,2.9007591E1,1.4357214E2,-2.4947374E0,5.3748393E0,-1.0286118E0,-3.4758298E0,9.65283E0,2.3683884E0,-6.105348E0,1.633598E1],"categories":[],"categories_nodes":[],"categories_segments":[],"categories_sizes":[],"default_left":[0,0,0,0,0,0,0,0,0,0,0,0,0,0,0],"id":35,"left_children":[1,3,5,7,9,11,13,-1,-1,-1,-1,-1,-1,-1,-1],"loss_changes":[2.1361178E7,2.7268075E6,4.665599E6,2.200948E6,2.970491E6,4.475154E6,1.491929E6,0E0,0E0,0E0,0E0,0E0,0E0,0E0,0E0],"parents":[2147483647,0,0,1,1,2,2,3,3,4,4,5,5,6,6],"right_children":[2,4,6,8,10,12,14,-1,-1,-1,-1,-1,-1,-1,-1],"split_conditions":[2.84E1,7.2E1,3.12E1,2.76E1,2E0,2.18E1,3E0,-2.4947374E0,5.3748393E0,-1.0286118E0,-3.4758298E0,9.65283E0,2.3683884E0,-6.105348E0,1.633598E1],"split_indices":[3,2,3,3,1,0,1,0,0,0,0,0,0,0,0],"split_type":[0,0,0,0,0,0,0,0,0,0,0,0,0,0,0],"sum_hessian":[3.4138E4,2.1318E4,1.282E4,1.476E3,1.9842E4,1.2455E4,3.65E2,5.94E2,8.82E2,9.974E3,9.868E3,9.09E2,1.1546E4,3.2E1,3.33E2],"tree_param":{"num_deleted":"0","num_feature":"4","num_nodes":"15","size_leaf_vector":"1"}},{"base_weights":[2.2966333E-2,-1.2943536E1,4.028195E1,-1.5308863E1,7.533675E1,1.7974882E1,6.1066616E1,-1.6752125E0,8.700446E0,1.4218088E1,-6.977954E-1,6.2458247E-1,7.253099E0,4.12092E0,1.0317073E1],"categories":[],"categories_nodes":[],"categories_segments":[],"categories_sizes":[],"default_left":[0,0,0,0,0,0,0,0,0,0,0,0,0,0,0],"id":36,"left_children":[1,3,5,7,9,11,13,-1,-1,-1,-1,-1,-1,-1,-1],"loss_changes":[1.7821702E7,5.3932985E6,3.855036E6,3.715232E6,3.7095115E6,2.5674325E6,3.595069E6,0E0,0E0,0E0,0E0,0E0,0E0,0E0,0E0],"parents":[2147483647,0,0,1,1,2,2,3,3,4,4,5,5,6,6],"right_children":[2,4,6,8,10,12,14,-1,-1,-1,-1,-1,-1,-1,-1],"split_conditions":[2.93E1,2.44E1,4.1E0,5.3E0,1.9E0,2.41E1,3.04E1,-1.6752125E0,8.700446E0,1.4218088E1,-6.977954E-1,6.2458247E-1,7.253099E0,4.12092E0,1.0317073E1],"split_indices":[3,0,1,1,1,0,3,0,0,0,0,0,0,0,0],"split_type":[0,0,0,0,0,0,0,0,0,0,0,0,0,0,0],"sum_hessian":[3.4138E4,2.5822E4,8.316E3,2.5149E4,6.73E2,4.012E3,4.304E3,2.48E4,3.49E2,3.71E2,3.02E2,3.303E3,7.09E2,2.926E3,1.378E3],"tree_param":{"num_deleted":"0","num_feature":"4","num_nodes":"15","size_leaf_vector":"1"}},{"base_weights":[2.1924213E-2,-1.7720152E1,2.4160126E1,-1.802686E1,3.005583E2,1.7578964E1,7.07145E1,-2.728808E0,-8.220687E-1,5.163625E1,5.4698267E0,9.336968E0,1.3019273E0,-4.3489902E1,7.379762E0],"categories":[],"categories_nodes":[],"categories_segments":[],"categories_sizes":[],"default_left":[0,0,0,0,0,0,0,0,0,0,0,0,0,0,0],"id":37,"left_children":[1,3,5,7,9,11,13,-1,-1,-1,-1,-1,-1,-1,-1],"loss_changes":[1.4620858E7,1.9262575E6,4.429957E6,1.785149E6,9.798509E5,4.378348E6,2.824023E6,0E0,0E0,0E0,0E0,0E0,0E0,0E0,0E0],"parents":[2147483647,0,0,1,1,2,2,3,3,4,4,5,5,6,6],"right_children":[2,4,6,8,10,12,14,-1,-1,-1,-1,-1,-1,-1,-1],"split_conditions":[2.81E1,2.5E1,5.1E0,2.72E1,2.51E1,2.18E1,2.09E1,-2.728808E0,-8.220687E-1,5.163625E1,5.4698267E0,9.336968E0,1.3019273E0,-4.3489902E1,7.379762E0],"split_indices":[3,0,1,3,0,0,0,0,0,0,0,0,0,0,0],"split_type":[0,0,0,0,0,0,0,0,0,0,0,0,0,0,0],"sum_hessian":[3.4138E4,1.9676E4,1.4462E4,1.9658E4,1.8E1,1.2672E4,1.79E3,1.0109E4,9.549E3,9E0,9E0,7.18E2,1.1954E4,1E1,1.78E3],"tree_param":{"num_deleted":"0","num_feature":"4","num_nodes":"15","size_leaf_vector":"1"}},{"base_weights":[2.0546904E-2,-1.0775162E1,3.3539555E1,-1.2855736E1,6.687647E1,3.0415266E1,1.5826889E2,-1.4090234E0,7.465751E0,3.646322E0,2.3905798E1,6.4585695E0,1.7448097E0,1.13154335E1,3.1415659E1],"categories":[],"categories_nodes":[],"categories_segments":[],"categories_sizes":[],"default_left":[0,0,0,0,0,0,0,0,0,0,0,0,0,0,0],"id":38,"left_children":[1,3,5,7,9,11,13,-1,-1,-1,-1,-1,-1,-1,-1],"loss_changes":[1.235395E7,4.1728225E6,3.236241E6,2.71813E6,3.5207515E6,3.594578E6,1.392111E6,0E0,0E0,0E0,0E0,0E0,0E0,0E0,0E0],"parents":[2147483647,0,0,1,1,2,2,3,3,4,4,5,5,6,6],"right_children":[2,4,6,8,10,12,14,-1,-1,-1,-1,-1,-1,-1,-1],"split_conditions":[2.93E1,2.44E1,3.14E1,5.3E0,2.9E1,2.25E1,2.41E1,-1.4090234E0,7.465751E0,3.646322E0,2.3905798E1,6.4585695E0,1.7448097E0,1.13154335E1,3.1415659E1],"split_indices":[3,0,3,1,3,0,0,0,0,0,0,0,0,0,0],"split_type":[0,0,0,0,0,0,0,0,0,0,0,0,0,0,0],"sum_hessian":[3.4138E4,2.5822E4,8.316E3,2.5149E4,6.73E2,8.114E3,2.02E2,2.48E4,3.49E2,5.73E2,1E2,2.231E3,5.883E3,1.58E2,4.4E1],"tree_param":{"num_deleted":"0","num_feature":"4","num_nodes":"15","size_leaf_vector":"1"}},{"base_weights":[2.0969748E-2,-1.4663536E1,1.9999329E1,5.270476E2,-1.4828013E1,4.6303604E1,1.124878E1,1.1061955E1,5.882093E1,2.2764109E-1,-1.9819762E0,9.814235E0,4.010267E0,-2.352088E0,2.943456E0],"categories":[],"categories_nodes":[],"categories_segments":[],"categories_sizes":[],"default_left":[0,0,0,0,0,0,0,0,0,0,0,0,0,0,0],"id":39,"left_children":[1,3,5,7,9,11,13,-1,-1,-1,-1,-1,-1,-1,-1],"loss_changes":[1.001573E7,1.7610235E6,3.328527E6,8.7749125E4,1.6796595E6,1.156494E6,6.863821E6,0E0,0E0,0E0,0E0,0E0,0E0,0E0,0E0],"parents":[2147483647,0,0,1,1,2,2,3,3,4,4,5,5,6,6],"right_children":[2,4,6,8,10,12,14,-1,-1,-1,-1,-1,-1,-1,-1],"split_conditions":[2.81E1,6.6E1,2.25E1,2.77E1,3E-1,6E1,2.31E1,1.1061955E1,5.882093E1,2.2764109E-1,-1.9819762E0,9.814235E0,4.010267E0,-2.352088E0,2.943456E0],"split_indices":[3,2,0,3,1,2,0,0,0,0,0,0,0,0,0],"split_type":[0,0,0,0,0,0,0,0,0,0,0,0,0,0,0],"sum_hessian":[3.4138E4,1.9676E4,1.4462E4,5E0,1.9671E4,3.609E3,1.0853E4,1E0,4E0,4.444E3,1.5227E4,3.84E2,3.225E3,3.727E3,7.126E3],"tree_param":{"num_deleted":"0","num_feature":"4","num_nodes":"15","size_leaf_vector":"1"}},{"base_weights":[2.1294774E-2,-8.999947E0,2.8030853E1,-1.0825347E1,5.9127365E1,2.5293173E1,1.5525888E2,-1.6206783E-1,-2.0420077E0,1.1827735E1,-1.9603226E0,2.2512865E0,1.3560053E1,1.6878706E1,-8.483506E0],"categories":[],"categories_nodes":[],"categories_segments":[],"categories_sizes":[],"default_left":[0,0,0,0,0,0,0,0,0,0,0,0,0,0,0],"id":40,"left_children":[1,3,5,7,9,11,13,-1,-1,-1,-1,-1,-1,-1,-1],"loss_changes":[8.626529E6,3.211978E6,2.892965E6,2.2211218E6,3.141078E6,2.494311E6,5.827255E5,0E0,0E0,0E0,0E0,0E0,0E0,0E0,0E0],"parents":[2147483647,0,0,1,1,2,2,3,3,4,4,5,5,6,6],"right_children":[2,4,6,8,10,12,14,-1,-1,-1,-1,-1,-1,-1,-1],"split_conditions":[2.93E1,2.44E1,6E0,2.4E0,2E0,3.14E1,2.34E1,-1.6206783E-1,-2.0420077E0,1.1827735E1,-1.9603226E0,2.2512865E0,1.3560053E1,1.6878706E1,-8.483506E0],"split_indices":[3,0,1,1,1,3,0,0,0,0,0,0,0,0,0],"split_type":[0,0,0,0,0,0,0,0,0,0,0,0,0,0,0],"sum_hessian":[3.4138E4,2.5822E4,8.316E3,2.5149E4,6.73E2,8.142E3,1.74E2,1.2836E4,1.2313E4,3.84E2,2.89E2,7.943E3,1.99E2,1.65E2,9E0],"tree_param":{"num_deleted":"0","num_feature":"4","num_nodes":"15","size_leaf_vector":"1"}},{"base_weights":[2.0107962E-2,-1.5273226E1,1.4135042E1,-2.116986E1,-2.168005E0,1.0691172E2,1.1029063E1,-3.3224359E0,-1.4382948E0,-9.754464E-1,1.7144032E1,1.2111529E1,-1.22654295E1,3.8733823E0,1.896917E-1],"categories":[],"categories_nodes":[],"categories_segments":[],"categories_sizes":[],"default_left":[0,0,0,0,0,0,0,0,0,0,0,0,0,0,0],"id":41,"left_children":[1,3,5,7,9,11,13,-1,-1,-1,-1,-1,-1,-1,-1],"loss_changes":[7.369611E6,1.2662102E6,5.114857E6,9.240885E5,6.7003025E6,1.8897325E6,4.346534E6,0E0,0E0,0E0,0E0,0E0,0E0,0E0,0E0],"parents":[2147483647,0,0,1,1,2,2,3,3,4,4,5,5,6,6],"right_children":[2,4,6,8,10,12,14,-1,-1,-1,-1,-1,-1,-1,-1],"split_conditions":[2.77E1,8E1,1E-1,2.7E1,3.9E0,2.99E1,2.25E1,-3.3224359E0,-1.4382948E0,-9.754464E-1,1.7144032E1,1.2111529E1,-1.22654295E1,3.8733823E0,1.896917E-1],"split_indices":[3,2,1,3,1,3,0,0,0,0,0,0,0,0,0],"split_type":[0,0,0,0,0,0,0,0,0,0,0,0,0,0,0],"sum_hessian":[3.4138E4,1.6385E4,1.7753E4,1.13E4,5.085E3,5.74E2,1.7179E4,4.069E3,7.231E3,4.873E3,2.12E2,5.41E2,3.3E1,4.258E3,1.2921E4],"tree_param":{"num_deleted":"0","num_feature":"4","num_nodes":"15","size_leaf_vector":"1"}},{"base_weights":[1.8547792E-2,-6.419861E0,2.9792206E1,-6.73574E0,3.9660373E2,-1.3940916E1,4.14585E1,4.3880324E0,-8.889565E-1,2.0815268E1,5.6613186E1,2.5333247E-1,-9.413221E0,3.010647E0,8.125305E0],"categories":[],"categories_nodes":[],"categories_segments":[],"categories_sizes":[],"default_left":[0,0,0,0,0,0,0,0,0,0,0,0,0,0,0],"id":42,"left_children":[1,3,5,7,9,11,13,-1,-1,-1,-1,-1,-1,-1,-1],"loss_changes":[6.5444665E6,3.576174E6,3.097512E6,3.05824E6,5.8500875E5,1.6899134E6,2.1623345E6,0E0,0E0,0E0,0E0,0E0,0E0,0E0,0E0],"parents":[2147483647,0,0,1,1,2,2,3,3,4,4,5,5,6,6],"right_children":[2,4,6,8,10,12,14,-1,-1,-1,-1,-1,-1,-1,-1],"split_conditions":[2.97E1,2.52E1,3.1E0,6.7E1,2.3E0,2.8E0,2.37E1,4.3880324E0,-8.889565E-1,2.0815268E1,5.6613186E1,2.5333247E-1,-9.413221E0,3.010647E0,8.125305E0],"split_indices":[3,0,1,2,1,1,0,0,0,0,0,0,0,0,0],"split_type":[0,0,0,0,0,0,0,0,0,0,0,0,0,0,0],"sum_hessian":[3.4138E4,2.8069E4,6.069E3,2.8048E4,2.1E1,1.278E3,4.791E3,1.144E3,2.6904E4,1.1E1,1E1,1.061E3,2.17E2,3.729E3,1.062E3],"tree_param":{"num_deleted":"0","num_feature":"4","num_nodes":"15","size_leaf_vector":"1"}},{"base_weights":[1.9105999E-2,-1.6273687E1,9.760009E0,-2.4036627E1,-6.3181863E0,2.13497E0,3.539639E1,-2.4285324E0,3.3755E1,-1.1607869E0,1.1889102E1,2.792545E0,-1.0082008E0,7.1887546E0,1.402167E0],"categories":[],"categories_nodes":[],"categories_segments":[],"categories_sizes":[],"default_left":[0,0,0,0,0,0,0,0,0,0,0,0,0,0,0],"id":43,"left_children":[1,3,5,7,9,11,13,-1,-1,-1,-1,-1,-1,-1,-1],"loss_changes":[5.41824E6,9.8707375E5,4.176516E6,6.5359025E5,3.70903E6,5.189362E6,3.819374E6,0E0,0E0,0E0,0E0,0E0,0E0,0E0,0E0],"parents":[2147483647,0,0,1,1,2,2,3,3,4,4,5,5,6,6],"right_children":[2,4,6,8,10,12,14,-1,-1,-1,-1,-1,-1,-1,-1],"split_conditions":[2.74E1,7.9E1,2.37E1,2.33E1,3.9E0,2.25E1,2E0,-2.4285324E0,3.3755E1,-1.1607869E0,1.1889102E1,2.792545E0,-1.0082008E0,7.1887546E0,1.402167E0],"split_indices":[3,2,0,0,1,0,1,0,0,0,0,0,0,0,0],"split_type":[0,0,0,0,0,0,0,0,0,0,0,0,0,0,0],"sum_hessian":[3.4138E4,1.2773E4,2.1365E4,7.176E3,5.597E3,1.6468E4,4.897E3,7.172E3,4E0,5.371E3,2.26E2,5.293E3,1.1175E4,1.808E3,3.089E3],"tree_param":{"num_deleted":"0","num_feature":"4","num_nodes":"15","size_leaf_vector":"1"}},{"base_weights":[1.8741287E-2,-5.587077E0,2.5942186E1,2.0042918E0,-2.0744905E1,-1.4041713E1,3.66086E1,-1.2111977E0,2.9759703E0,-2.8759873E0,1.7889166E0,5.785633E-2,-8.520085E0,1.43195715E1,3.2561536E0],"categories":[],"categories_nodes":[],"categories_segments":[],"categories_sizes":[],"default_left":[0,0,0,0,0,0,0,0,0,0,0,0,0,0,0],"id":44,"left_children":[1,3,5,7,9,11,13,-1,-1,-1,-1,-1,-1,-1,-1],"loss_changes":[4.961297E6,3.2300192E6,2.589277E6,7.3286405E6,2.9010135E6,1.3306778E6,2.062439E6,0E0,0E0,0E0,0E0,0E0,0E0,0E0,0E0],"parents":[2147483647,0,0,1,1,2,2,3,3,4,4,5,5,6,6],"right_children":[2,4,6,8,10,12,14,-1,-1,-1,-1,-1,-1,-1,-1],"split_conditions":[2.97E1,3.3E0,3.1E0,2.77E1,4.8E0,2.8E0,2.15E1,-1.2111977E0,2.9759703E0,-2.8759873E0,1.7889166E0,5.785633E-2,-8.520085E0,1.43195715E1,3.2561536E0],"split_indices":[3,1,1,3,1,1,0,0,0,0,0,0,0,0,0],"split_type":[0,0,0,0,0,0,0,0,0,0,0,0,0,0,0],"sum_hessian":[3.4138E4,2.8069E4,6.069E3,1.8703E4,9.366E3,1.278E3,4.791E3,1.2398E4,6.305E3,7.757E3,1.609E3,1.061E3,2.17E2,1.74E2,4.617E3],"tree_param":{"num_deleted":"0","num_feature":"4","num_nodes":"15","size_leaf_vector":"1"}},{"base_weights":[1.7159747E-2,-2.7349846E0,4.433826E1,-4.701699E0,4.6366768E1,3.761955E1,2.852664E2,2.1796339E0,-8.419365E-1,1.1034945E1,2.4224687E0,-5.6220573E-1,6.4398E0,1.4367119E1,5.8499287E1],"categories":[],"categories_nodes":[],"categories_segments":[],"categories_sizes":[],"default_left":[0,0,0,0,0,0,0,0,0,0,0,0,0,0,0],"id":45,"left_children":[1,3,5,7,9,11,13,-1,-1,-1,-1,-1,-1,-1,-1],"loss_changes":[4.1643308E6,3.1043355E6,3.2202465E6,3.0448585E6,1.751213E6,2.2502455E6,2.207704E6,0E0,0E0,0E0,0E0,0E0,0E0,0E0,0E0],"parents":[2147483647,0,0,1,1,2,2,3,3,4,4,5,5,6,6],"right_children":[2,4,6,8,10,12,14,-1,-1,-1,-1,-1,-1,-1,-1],"split_conditions":[5.1E0,2.44E1,7.7E1,6.7E1,1E0,2.96E1,2.4E1,2.1796339E0,-8.419365E-1,1.1034945E1,2.4224687E0,-5.6220573E-1,6.4398E0,1.4367119E1,5.8499287E1],"split_indices":[1,0,2,2,1,3,0,0,0,0,0,0,0,0,0],"split_type":[0,0,0,0,0,0,0,0,0,0,0,0,0,0,0],"sum_hessian":[3.4138E4,3.2143E4,1.995E3,3.0906E4,1.237E3,1.942E3,5.3E1,3.802E3,2.7104E4,3.17E2,9.2E2,7.43E2,1.199E3,3.7E1,1.6E1],"tree_param":{"num_deleted":"0","num_feature":"4","num_nodes":"15","size_leaf_vector":"1"}},{"base_weights":[1.8186301E-2,-3.0091386E0,3.343404E1,-7.408418E0,1.6158052E1,2.6535961E1,1.9790807E2,1.628109E0,-1.1020538E0,5.1360087E0,-5.9261197E-1,7.2291856E0,6.781821E-1,1.0066527E1,3.685924E1],"categories":[],"categories_nodes":[],"categories_segments":[],"categories_sizes":[],"default_left":[0,0,0,0,0,0,0,0,0,0,0,0,0,0,0],"id":46,"left_children":[1,3,5,7,9,11,13,-1,-1,-1,-1,-1,-1,-1,-1],"loss_changes":[3.453624E6,2.6397302E6,3.2123462E6,2.1788598E6,4.5434755E6,2.4607435E6,1.855047E6,0E0,0E0,0E0,0E0,0E0,0E0,0E0,0E0],"parents":[2147483647,0,0,1,1,2,2,3,3,4,4,5,5,6,6],"right_children":[2,4,6,8,10,12,14,-1,-1,-1,-1,-1,-1,-1,-1],"split_conditions":[4.9E0,2.37E1,7.6E1,6.7E1,7.6E1,6.4E1,2.78E1,1.628109E0,-1.1020538E0,5.1360087E0,-5.9261197E-1,7.2291856E0,6.781821E-1,1.0066527E1,3.685924E1],"split_indices":[1,0,2,2,2,2,3,0,0,0,0,0,0,0,0],"split_type":[0,0,0,0,0,0,0,0,0,0,0,0,0,0,0],"sum_hessian":[3.4138E4,3.1303E4,2.835E3,2.546E4,5.843E3,2.722E3,1.13E2,3.368E3,2.2092E4,2.252E3,3.591E3,8.2E2,1.902E3,7.3E1,4E1],"tree_param":{"num_deleted":"0","num_feature":"4","num_nodes":"15","size_leaf_vector":"1"}},{"base_weights":[1.8115921E-2,-2.0133972E0,4.1689087E1,-3.5095499E0,3.9367004E1,1.2817831E1,8.64607E1,7.016533E-1,-1.1111816E0,3.1247227E0,2.9389923E1,-2.8828697E0,5.6106696E0,7.3878565E0,1.7455664E1],"categories":[],"categories_nodes":[],"categories_segments":[],"categories_sizes":[],"default_left":[0,0,0,0,0,0,0,0,0,0,0,0,0,0,0],"id":47,"left_children":[1,3,5,7,9,11,13,-1,-1,-1,-1,-1,-1,-1,-1],"loss_changes":[2.890125E6,2.0155399E6,2.050268E6,2.514212E6,2.3386385E6,1.743152E6,6.765505E5,0E0,0E0,0E0,0E0,0E0,0E0,0E0,0E0],"parents":[2147483647,0,0,1,1,2,2,3,3,4,4,5,5,6,6],"right_children":[2,4,6,8,10,12,14,-1,-1,-1,-1,-1,-1,-1,-1],"split_conditions":[3.06E1,5.3E0,4.6E0,2.1E0,2.4E1,2.32E1,2.4E1,7.016533E-1,-1.1111816E0,3.1247227E0,2.9389923E1,-2.8828697E0,5.6106696E0,7.3878565E0,1.7455664E1],"split_indices":[3,1,1,1,0,0,0,0,0,0,0,0,0,0,0],"split_type":[0,0,0,0,0,0,0,0,0,0,0,0,0,0,0],"sum_hessian":[3.4138E4,3.2552E4,1.586E3,3.1417E4,1.135E3,9.65E2,6.21E2,1.3175E4,1.8242E4,1.101E3,3.4E1,4.92E2,4.73E2,5.45E2,7.6E1],"tree_param":{"num_deleted":"0","num_feature":"4","num_nodes":"15","size_leaf_vector":"1"}},{"base_weights":[1.8042866E-2,-1.3567817E1,5.734744E0,8.744961E0,-1.8457022E1,6.014715E1,2.9220703E0,-4.10554E-1,7.054723E0,-1.9126189E0,9.007373E0,6.532524E0,-1.1645872E1,1.4280988E-1,7.3289843E0],"categories":[],"categories_nodes":[],"categories_segments":[],"categories_sizes":[],"default_left":[0,0,0,0,0,0,0,0,0,0,0,0,0,0,0],"id":48,"left_children":[1,3,5,7,9,11,13,-1,-1,-1,-1,-1,-1,-1,-1],"loss_changes":[2.6515278E6,1.1031876E6,3.6773262E6,1.4441272E6,6.04076E5,1.087611E6,2.4019525E6,0E0,0E0,0E0,0E0,0E0,0E0,0E0,0E0],"parents":[2147483647,0,0,1,1,2,2,3,3,4,4,5,5,6,6],"right_children":[2,4,6,8,10,12,14,-1,-1,-1,-1,-1,-1,-1,-1],"split_conditions":[2.72E1,2.63E1,1E-1,2.5E0,5.1E0,2.99E1,3.11E1,-4.10554E-1,7.054723E0,-1.9126189E0,9.007373E0,6.532524E0,-1.1645872E1,1.4280988E-1,7.3289843E0],"split_indices":[3,3,1,1,1,3,3,0,0,0,0,0,0,0,0],"split_type":[0,0,0,0,0,0,0,0,0,0,0,0,0,0,0],"sum_hessian":[3.4138E4,1.011E4,2.4028E4,1.817E3,8.293E3,1.18E3,2.2848E4,1.505E3,3.12E2,8.243E3,5E1,1.147E3,3.3E1,2.2374E4,4.74E2],"tree_param":{"num_deleted":"0","num_feature":"4","num_nodes":"15","size_leaf_vector":"1"}},{"base_weights":[1.670382E-2,-2.4504724E0,2.7249592E1,-4.058076E0,3.7639084E1,2.1088936E1,1.7416376E2,1.4544106E0,-6.46933E-1,-4.5105586E0,5.3142123E0,6.0844903E0,3.9261737E-1,8.66009E0,3.2795616E1],"categories":[],"categories_nodes":[],"categories_segments":[],"categories_sizes":[],"default_left":[0,0,0,0,0,0,0,0,0,0,0,0,0,0,0],"id":49,"left_children":[1,3,5,7,9,11,13,-1,-1,-1,-1,-1,-1,-1,-1],"loss_changes":[2.2938092E6,2.017636E6,2.5631555E6,1.3501276E6,1.5507294E6,1.8577248E6,1.5067798E6,0E0,0E0,0E0,0E0,0E0,0E0,0E0,0E0],"parents":[2147483647,0,0,1,1,2,2,3,3,4,4,5,5,6,6],"right_children":[2,4,6,8,10,12,14,-1,-1,-1,-1,-1,-1,-1,-1],"split_conditions":[4.9E0,2.44E1,7.6E1,6.7E1,2.77E1,6.4E1,2.78E1,1.4544106E0,-6.46933E-1,-4.5105586E0,5.3142123E0,6.0844903E0,3.9261737E-1,8.66009E0,3.2795616E1],"split_indices":[1,0,2,2,3,2,3,0,0,0,0,0,0,0,0],"split_type":[0,0,0,0,0,0,0,0,0,0,0,0,0,0,0],"sum_hessian":[3.4138E4,3.1303E4,2.835E3,3.0097E4,1.206E3,2.722E3,1.13E2,3.453E3,2.6644E4,1.9E2,1.016E3,8.2E2,1.902E3,7.3E1,4E1],"tree_param":{"num_deleted":"0","num_feature":"4","num_nodes":"15","size_leaf_vector":"1"}},{"base_weights":[1.6496688E-2,-3.5872068E0,1.6538822E1,1.6709787E1,-7.825732E0,4.443386E1,-2.502517E0,1.1287335E0,7.9454165E0,-8.178884E-2,-1.6296889E0,4.2665772E0,2.8389853E1,1.9116341E0,-4.75351E0],"categories":[],"categories_nodes":[],"categories_segments":[],"categories_sizes":[],"default_left":[0,0,0,0,0,0,0,0,0,0,0,0,0,0,0],"id":50,"left_children":[1,3,5,7,9,11,13,-1,-1,-1,-1,-1,-1,-1,-1],"loss_changes":[2.0327489E6,2.4112745E6,3.2470858E6,1.6464891E6,1.3764125E6,1.0379045E6,3.5388002E6,0E0,0E0,0E0,0E0,0E0,0E0,0E0,0E0],"parents":[2147483647,0,0,1,1,2,2,3,3,4,4,5,5,6,6],"right_children":[2,4,6,8,10,12,14,-1,-1,-1,-1,-1,-1,-1,-1],"split_conditions":[2.37E1,6.7E1,7.6E1,2.32E1,2.8E0,3.17E1,2.6E0,1.1287335E0,7.9454165E0,-8.178884E-2,-1.6296889E0,4.2665772E0,2.8389853E1,1.9116341E0,-4.75351E0],"split_indices":[0,2,2,0,1,3,1,0,0,0,0,0,0,0,0],"split_type":[0,0,0,0,0,0,0,0,0,0,0,0,0,0,0],"sum_hessian":[3.4138E4,2.8026E4,6.112E3,4.841E3,2.3185E4,2.479E3,3.633E3,4.457E3,3.84E2,1.2689E4,1.0496E4,2.462E3,1.7E1,2.455E3,1.178E3],"tree_param":{"num_deleted":"0","num_feature":"4","num_nodes":"15","size_leaf_vector":"1"}},{"base_weights":[1.5938127E-2,-5.890933E-1,9.503942E1,-4.0271688E0,1.5068656E1,-2.4224889E2,1.2507032E2,1.1889384E0,-7.245524E-1,4.0380716E0,-2.1864295E-1,-3.7696606E1,-6.564659E0,1.5279918E1,-4.6678968E-2],"categories":[],"categories_nodes":[],"categories_segments":[],"categories_sizes":[],"default_left":[0,0,0,0,0,0,0,0,0,0,0,0,0,0,0],"id":51,"left_children":[1,3,5,7,9,11,13,-1,-1,-1,-1,-1,-1,-1,-1],"loss_changes":[1.9627821E6,1.8262754E6,2.218178E6,1.4250152E6,2.667829E6,4.0349788E5,6.9279025E5,0E0,0E0,0E0,0E0,0E0,0E0,0E0,0E0],"parents":[2147483647,0,0,1,1,2,2,3,3,4,4,5,5,6,6],"right_children":[2,4,6,8,10,12,14,-1,-1,-1,-1,-1,-1,-1,-1],"split_conditions":[6E0,2.37E1,2.12E1,6.7E1,7.6E1,2.96E1,6.8E1,1.1889384E0,-7.245524E-1,4.0380716E0,-2.1864295E-1,-3.7696606E1,-6.564659E0,1.5279918E1,-4.6678968E-2],"split_indices":[1,0,0,2,2,3,2,0,0,0,0,0,0,0,0],"split_type":[0,0,0,0,0,0,0,0,0,0,0,0,0,0,0],"sum_hessian":[3.4138E4,3.3923E4,2.15E2,2.7816E4,6.107E3,1.7E1,1.98E2,4.678E3,2.3138E4,2.475E3,3.632E3,9E0,8E0,1.62E2,3.6E1],"tree_param":{"num_deleted":"0","num_feature":"4","num_nodes":"15","size_leaf_vector":"1"}},{"base_weights":[1.362052E-2,-1.0889928E0,4.4817356E1,-1.2414931E0,3.1641788E2,-1.3522946E2,5.32573E1,-6.642354E-1,6.424791E-1,5.5946808E1,3.4341583E-1,-2.8452717E1,5.899927E-1,3.3000705E0,1.1263976E1],"categories":[],"categories_nodes":[],"categories_segments":[],"categories_sizes":[],"default_left":[0,0,0,0,0,0,0,0,0,0,0,0,0,0,0],"id":52,"left_children":[1,3,5,7,9,11,13,-1,-1,-1,-1,-1,-1,-1,-1],"loss_changes":[1.6865564E6,1.6137432E6,1.2532614E6,1.3790209E6,1.2152108E6,7.812793E5,9.39346E5,0E0,0E0,0E0,0E0,0E0,0E0,0E0,0E0],"parents":[2147483647,0,0,1,1,2,2,3,3,4,4,5,5,6,6],"right_children":[2,4,6,8,10,12,14,-1,-1,-1,-1,-1,-1,-1,-1],"split_conditions":[5.5E0,2.54E1,2.12E1,2.31E1,2.4E0,2.96E1,6E0,-6.642354E-1,6.424791E-1,5.5946808E1,3.4341583E-1,-2.8452717E1,5.899927E-1,3.3000705E0,1.1263976E1],"split_indices":[1,0,0,0,1,3,1,0,0,0,0,0,0,0,0],"split_type":[0,0,0,0,0,0,0,0,0,0,0,0,0,0,0],"sum_hessian":[3.4138E4,3.3319E4,8.19E2,3.3304E4,1.5E1,3.6E1,7.83E2,1.9539E4,1.3765E4,8E0,7E0,1.7E1,1.9E1,5.85E2,1.98E2],"tree_param":{"num_deleted":"0","num_feature":"4","num_nodes":"15","size_leaf_vector":"1"}},{"base_weights":[1.3514121E-2,-5.2585185E-1,9.018322E1,-2.1264267E0,2.5433609E1,5.4925613E1,2.1275603E2,7.781002E-1,-7.2179824E-1,2.0519617E0,2.4528614E1,-2.7533792E1,6.5224915E0,2.4396015E1,-1.6807623E1],"categories":[],"categories_nodes":[],"categories_segments":[],"categories_sizes":[],"default_left":[0,0,0,0,0,0,0,0,0,0,0,0,0,0,0],"id":53,"left_children":[1,3,5,7,9,11,13,-1,-1,-1,-1,-1,-1,-1,-1],"loss_changes":[1.6603798E6,1.4101384E6,8.65604E5,1.6126066E6,2.124344E6,5.587949E5,5.757629E5,0E0,0E0,0E0,0E0,0E0,0E0,0E0,0E0],"parents":[2147483647,0,0,1,1,2,2,3,3,4,4,5,5,6,6],"right_children":[2,4,6,8,10,12,14,-1,-1,-1,-1,-1,-1,-1,-1],"split_conditions":[3.14E1,5.1E0,2.41E1,1.5E0,7.8E1,1.5E0,7E1,7.781002E-1,-7.2179824E-1,2.0519617E0,2.4528614E1,-2.7533792E1,6.5224915E0,2.4396015E1,-1.6807623E1],"split_indices":[3,1,0,1,2,1,2,0,0,0,0,0,0,0,0],"split_type":[0,0,0,0,0,0,0,0,0,0,0,0,0,0,0],"sum_hessian":[3.4138E4,3.3936E4,2.02E2,3.1966E4,1.97E3,1.58E2,4.4E1,1.0851E4,2.1115E4,1.928E3,4.2E1,4E0,1.54E2,4.1E1,3E0],"tree_param":{"num_deleted":"0","num_feature":"4","num_nodes":"15","size_leaf_vector":"1"}},{"base_weights":[1.25344675E-2,-1.0263387E1,4.336469E0,8.968035E0,-1.4477573E1,2.1619854E1,-3.4298487E0,-2.8200302E-1,6.565768E0,-2.1554193E0,-6.191806E-1,1.4335848E1,1.9047651E0,1.6485758E0,-1.1883421E0],"categories":[],"categories_nodes":[],"categories_segments":[],"categories_sizes":[],"default_left":[0,0,0,0,0,0,0,0,0,0,0,0,0,0,0],"id":54,"left_children":[1,3,5,7,9,11,13,-1,-1,-1,-1,-1,-1,-1,-1],"loss_changes":[1.5169228E6,8.1957375E5,3.225445E6,1.215084E6,4.86187E5,2.3301362E6,2.7915718E6,0E0,0E0,0E0,0E0,0E0,0E0,0E0,0E0],"parents":[2147483647,0,0,1,1,2,2,3,3,4,4,5,5,6,6],"right_children":[2,4,6,8,10,12,14,-1,-1,-1,-1,-1,-1,-1,-1],"split_conditions":[2.72E1,2.63E1,2.1E0,2.5E0,2.69E1,2.15E1,2.25E1,-2.8200302E-1,6.565768E0,-2.1554193E0,-6.191806E-1,1.4335848E1,1.9047651E0,1.6485758E0,-1.1883421E0],"split_indices":[3,3,1,1,3,0,0,0,0,0,0,0,0,0,0],"split_type":[0,0,0,0,0,0,0,0,0,0,0,0,0,0,0],"sum_hessian":[3.4138E4,1.011E4,2.4028E4,1.817E3,8.293E3,7.449E3,1.6579E4,1.505E3,3.12E2,4.472E3,3.821E3,1.53E2,7.296E3,4.94E3,1.1639E4],"tree_param":{"num_deleted":"0","num_feature":"4","num_nodes":"15","size_leaf_vector":"1"}},{"base_weights":[1.1855094E-2,-4.0422556E-1,9.689017E1,-5.2917E-1,2.8266348E2,5.557474E1,2.4836433E2,-2.2908476E-1,1.9013102E0,5.0881428E1,-4.848232E0,6.878573E0,-1.3137183E1,2.7272512E1,-2.412295E1],"categories":[],"categories_nodes":[],"categories_segments":[],"categories_sizes":[],"default_left":[0,0,0,0,0,0,0,0,0,0,0,0,0,0,0],"id":55,"left_children":[1,3,5,7,9,11,13,-1,-1,-1,-1,-1,-1,-1,-1],"loss_changes":[1.3761546E6,1.2024402E6,8.998974E5,1.1698791E6,1.1480016E6,2.955274E5,4.3552275E5,0E0,0E0,0E0,0E0,0E0,0E0,0E0,0E0],"parents":[2147483647,0,0,1,1,2,2,3,3,4,4,5,5,6,6],"right_children":[2,4,6,8,10,12,14,-1,-1,-1,-1,-1,-1,-1,-1],"split_conditions":[3.15E1,2.54E1,2.4E1,4.9E0,2.4E0,2.39E1,7E1,-2.2908476E-1,1.9013102E0,5.0881428E1,-4.848232E0,6.878573E0,-1.3137183E1,2.7272512E1,-2.412295E1],"split_indices":[3,0,0,1,1,0,2,0,0,0,0,0,0,0,0],"split_type":[0,0,0,0,0,0,0,0,0,0,0,0,0,0,0],"sum_hessian":[3.4138E4,3.3993E4,1.45E2,3.3979E4,1.4E1,1.15E2,3E1,3.117E4,2.809E3,8E0,6E0,1.08E2,7E0,2.9E1,1E0],"tree_param":{"num_deleted":"0","num_feature":"4","num_nodes":"15","size_leaf_vector":"1"}},{"base_weights":[1.1965351E-2,5.35579E1,-6.6140896E-1,-2.5169249E2,6.003313E1,-6.1374545E0,7.0962386E0,-2.6782491E0,-5.261344E1,1.2917668E0,8.5194845E0,-7.0677114E-1,5.7471232E0,2.67273E-1,4.5000663E0],"categories":[],"categories_nodes":[],"categories_segments":[],"categories_sizes":[],"default_left":[0,0,0,0,0,0,0,0,0,0,0,0,0,0,0],"id":56,"left_children":[1,3,5,7,9,11,13,-1,-1,-1,-1,-1,-1,-1,-1],"loss_changes":[1.2309669E6,8.53174E5,1.4323408E6,5.4143125E5,4.9207E5,1.1699494E6,2.339219E6,0E0,0E0,0E0,0E0,0E0,0E0,0E0,0E0],"parents":[2147483647,0,0,1,1,2,2,3,3,4,4,5,5,6,6],"right_children":[2,4,6,8,10,12,14,-1,-1,-1,-1,-1,-1,-1,-1],"split_conditions":[6E1,7E-1,2.31E1,2.15E1,4.3E0,5.8E0,4.5E0,-2.6782491E0,-5.261344E1,1.2917668E0,8.5194845E0,-7.0677114E-1,5.7471232E0,2.67273E-1,4.5000663E0],"split_indices":[2,1,0,0,1,1,1,0,0,0,0,0,0,0,0],"split_type":[0,0,0,0,0,0,0,0,0,0,0,0,0,0,0],"sum_hessian":[3.4138E4,4.23E2,3.3715E4,8E0,4.15E2,1.9764E4,1.3951E4,5E0,3E0,1.45E2,2.7E2,1.948E4,2.84E2,1.2494E4,1.457E3],"tree_param":{"num_deleted":"0","num_feature":"4","num_nodes":"15","size_leaf_vector":"1"}},{"base_weights":[9.719991E-3,-1.1182923E0,2.913334E1,4.8094822E1,-1.7614079E0,8.794402E1,9.540318E0,-2.3266676E1,5.405338E0,1.5007867E0,-3.391151E-1,2.1046051E1,-1.3372078E0,-2.1586947E-1,1.2944618E1],"categories":[],"categories_nodes":[],"categories_segments":[],"categories_sizes":[],"default_left":[0,0,0,0,0,0,0,0,0,0,0,0,0,0,0],"id":57,"left_children":[1,3,5,7,9,11,13,-1,-1,-1,-1,-1,-1,-1,-1],"loss_changes":[1.1215602E6,1.040316E6,1.4660122E6,7.2190025E5,8.867327E5,3.950114E6,1.3413372E6,0E0,0E0,0E0,0E0,0E0,0E0,0E0,0E0],"parents":[2147483647,0,0,1,1,2,2,3,3,4,4,5,5,6,6],"right_children":[2,4,6,8,10,12,14,-1,-1,-1,-1,-1,-1,-1,-1],"split_conditions":[2.44E1,6E1,1E0,7E-1,1E-1,8.1E1,3.1E1,-2.3266676E1,5.405338E0,1.5007867E0,-3.391151E-1,2.1046051E1,-1.3372078E0,-2.1586947E-1,1.2944618E1],"split_indices":[0,2,1,1,1,2,3,0,0,0,0,0,0,0,0],"split_type":[0,0,0,0,0,0,0,0,0,0,0,0,0,0,0],"sum_hessian":[3.4138E4,3.2866E4,1.272E3,4.23E2,3.2443E4,3.17E2,9.55E2,8E0,4.15E2,2.873E3,2.957E4,1.43E2,1.74E2,8.71E2,8.4E1],"tree_param":{"num_deleted":"0","num_feature":"4","num_nodes":"15","size_leaf_vector":"1"}},{"base_weights":[9.206876E-3,-8.597747E0,3.6308684E0,8.397704E0,-1.23220215E1,1.835592E1,-4.160569E0,-2.2987151E-1,5.983671E0,-1.0777282E0,-4.575352E0,1.0315772E0,5.259504E0,3.1798163E-1,-2.6900325E0],"categories":[],"categories_nodes":[],"categories_segments":[],"categories_sizes":[],"default_left":[0,0,0,0,0,0,0,0,0,0,0,0,0,0,0],"id":58,"left_children":[1,3,5,7,9,11,13,-1,-1,-1,-1,-1,-1,-1,-1],"loss_changes":[1.0641942E6,6.400865E5,2.7569075E6,1.00042506E6,4.2783412E5,2.2884738E6,2.6232105E6,0E0,0E0,0E0,0E0,0E0,0E0,0E0,0E0],"parents":[2147483647,0,0,1,1,2,2,3,3,4,4,5,5,6,6],"right_children":[2,4,6,8,10,12,14,-1,-1,-1,-1,-1,-1,-1,-1],"split_conditions":[2.72E1,2.63E1,2.4E0,2.5E0,8.5E1,2.39E1,7.5E1,-2.2987151E-1,5.983671E0,-1.0777282E0,-4.575352E0,1.0315772E0,5.259504E0,3.1798163E-1,-2.6900325E0],"split_indices":[3,3,1,1,2,0,2,0,0,0,0,0,0,0,0],"split_type":[0,0,0,0,0,0,0,0,0,0,0,0,0,0,0],"sum_hessian":[3.4138E4,1.011E4,2.4028E4,1.817E3,8.293E3,8.314E3,1.5714E4,1.505E3,3.12E2,7.928E3,3.65E2,6.734E3,1.58E3,1.188E4,3.834E3],"tree_param":{"num_deleted":"0","num_feature":"4","num_nodes":"15","size_leaf_vector":"1"}},{"base_weights":[8.420681E-3,-1.11246616E-1,2.5522832E2,-5.238521E-1,6.46626E1,4.5796954E2,-4.759094E0,-4.9218923E-1,5.794359E-1,-2.1911003E1,9.000554E0,2.5532257E1,1.0395727E2,2.0498657E1,-1.7160381E1],"categories":[],"categories_nodes":[],"categories_segments":[],"categories_sizes":[],"default_left":[0,0,0,0,0,0,0,0,0,0,0,0,0,0,0],"id":59,"left_children":[1,3,5,7,9,11,13,-1,-1,-1,-1,-1,-1,-1,-1],"loss_changes":[1.04268375E6,9.120334E5,8.4554225E5,9.422831E5,1.5731136E6,7.953146E5,3.1513612E5,0E0,0E0,0E0,0E0,0E0,0E0,0E0,0E0],"parents":[2147483647,0,0,1,1,2,2,3,3,4,4,5,5,6,6],"right_children":[2,4,6,8,10,12,14,-1,-1,-1,-1,-1,-1,-1,-1],"split_conditions":[2.54E1,6E0,2.4E0,2.31E1,2.12E1,1.9E0,7.2E1,-4.9218923E-1,5.794359E-1,-2.1911003E1,9.000554E0,2.5532257E1,1.0395727E2,2.0498657E1,-1.7160381E1],"split_indices":[0,1,1,0,0,1,2,0,0,0,0,0,0,0,0],"split_type":[0,0,0,0,0,0,0,0,0,0,0,0,0,0,0],"sum_hessian":[3.4138E4,3.4123E4,1.5E1,3.3908E4,2.15E2,8E0,7E0,1.9992E4,1.3916E4,1.7E1,1.98E2,7E0,1E0,3E0,4E0],"tree_param":{"num_deleted":"0","num_feature":"4","num_nodes":"15","size_leaf_vector":"1"}},{"base_weights":[1.1099309E-2,-3.301157E-1,7.945803E1,4.1125818E2,-3.906515E-1,4.3663845E1,2.1083441E2,6.372486E1,4.818168E0,-5.7985105E-2,1.3067469E1,6.999363E0,-5.497633E0,-1.1321933E1,2.49598E1],"categories":[],"categories_nodes":[],"categories_segments":[],"categories_sizes":[],"default_left":[0,0,0,0,0,0,0,0,0,0,0,0,0,0,0],"id":60,"left_children":[1,3,5,7,9,11,13,-1,-1,-1,-1,-1,-1,-1,-1],"loss_changes":[9.254828E5,8.471491E5,6.773608E5,3.7955525E5,8.4294275E5,3.0512025E5,4.176655E5,0E0,0E0,0E0,0E0,0E0,0E0,0E0,0E0],"parents":[2147483647,0,0,1,1,2,2,3,3,4,4,5,5,6,6],"right_children":[2,4,6,8,10,12,14,-1,-1,-1,-1,-1,-1,-1,-1],"split_conditions":[3.15E1,2.05E1,2.4E1,6.5E1,2.52E1,3.19E1,3E0,6.372486E1,4.818168E0,-5.7985105E-2,1.3067469E1,6.999363E0,-5.497633E0,-1.1321933E1,2.49598E1],"split_indices":[3,0,0,2,0,3,1,0,0,0,0,0,0,0,0],"split_type":[0,0,0,0,0,0,0,0,0,0,0,0,0,0,0],"sum_hessian":[3.4138E4,3.3993E4,1.45E2,4E0,3.3989E4,1.15E2,3E1,2E0,2E0,3.3941E4,4.8E1,9.1E1,2.4E1,3E0,2.7E1],"tree_param":{"num_deleted":"0","num_feature":"4","num_nodes":"15","size_leaf_vector":"1"}},{"base_weights":[1.2843315E-2,7.0725293E0,-3.4937878E0,3.2535137E1,1.4005867E0,-5.9157195E0,2.1022444E1,2.8443906E0,1.8723364E1,-7.702418E-1,1.7191429E0,-1.3825248E0,3.7322885E-1,7.5420146E0,-1.7154568E0],"categories":[],"categories_nodes":[],"categories_segments":[],"categories_sizes":[],"default_left":[0,0,0,0,0,0,0,0,0,0,0,0,0,0,0],"id":61,"left_children":[1,3,5,7,9,11,13,-1,-1,-1,-1,-1,-1,-1,-1],"loss_changes":[8.4516E5,1.6362605E6,1.3545055E6,1.3009948E6,1.3322091E6,1.5842718E6,4.2606905E6,0E0,0E0,0E0,0E0,0E0,0E0,0E0,0E0],"parents":[2147483647,0,0,1,1,2,2,3,3,4,4,5,5,6,6],"right_children":[2,4,6,8,10,12,14,-1,-1,-1,-1,-1,-1,-1,-1],"split_conditions":[7.2E1,2.87E1,2.87E1,2.28E1,2.31E1,7.8E1,2.4E0,2.8443906E0,1.8723364E1,-7.702418E-1,1.7191429E0,-1.3825248E0,3.7322885E-1,7.5420146E0,-1.7154568E0],"split_indices":[2,3,3,0,0,2,1,0,0,0,0,0,0,0,0],"split_type":[0,0,0,0,0,0,0,0,0,0,0,0,0,0,0],"sum_hessian":[3.4138E4,1.1329E4,2.2809E4,2.063E3,9.266E3,2.0759E4,2.05E3,2.011E3,5.2E1,5.878E3,3.388E3,1.1407E4,9.352E3,8.45E2,1.205E3],"tree_param":{"num_deleted":"0","num_feature":"4","num_nodes":"15","size_leaf_vector":"1"}},{"base_weights":[1.2359124E-2,1.1957301E1,-2.0170782E0,6.951873E0,5.6472755E1,-2.5638452E0,9.186408E1,2.1572633E0,-1.6735779E0,-2.5436273E0,7.3987117E0,2.221775E-1,-1.1792376E0,1.3098996E1,-8.653463E0],"categories":[],"categories_nodes":[],"categories_segments":[],"categories_sizes":[],"default_left":[0,0,0,0,0,0,0,0,0,0,0,0,0,0,0],"id":62,"left_children":[1,3,5,7,9,11,13,-1,-1,-1,-1,-1,-1,-1,-1],"loss_changes":[8.27605E5,1.1043438E6,1.4981804E6,1.5443066E6,7.206085E5,1.2814076E6,1.1909561E6,0E0,0E0,0E0,0E0,0E0,0E0,0E0,0E0],"parents":[2147483647,0,0,1,1,2,2,3,3,4,4,5,5,6,6],"right_children":[2,4,6,8,10,12,14,-1,-1,-1,-1,-1,-1,-1,-1],"split_conditions":[6.7E1,2.32E1,3.08E1,2.25E1,3E0,3.3E0,7E1,2.1572633E0,-1.6735779E0,-2.5436273E0,7.3987117E0,2.221775E-1,-1.1792376E0,1.3098996E1,-8.653463E0],"split_indices":[2,0,3,0,1,1,2,0,0,0,0,0,0,0,0],"split_type":[0,0,0,0,0,0,0,0,0,0,0,0,0,0,0],"sum_hessian":[3.4138E4,4.957E3,2.9181E4,4.457E3,5E2,2.9013E4,1.68E2,2.756E3,1.701E3,8.8E1,4.12E2,1.9106E4,9.907E3,1.38E2,3E1],"tree_param":{"num_deleted":"0","num_feature":"4","num_nodes":"15","size_leaf_vector":"1"}},{"base_weights":[1.1383994E-2,-9.320422E-2,2.2307118E2,4.163305E1,-6.18169E-1,4.096364E2,-1.4698578E1,-3.0439317E0,6.2536736E0,3.80507E1,-6.7470245E-2,2.1654642E1,9.771782E1,1.7660162E1,-1.6479902E1],"categories":[],"categories_nodes":[],"categories_segments":[],"categories_sizes":[],"default_left":[0,0,0,0,0,0,0,0,0,0,0,0,0,0,0],"id":63,"left_children":[1,3,5,7,9,11,13,-1,-1,-1,-1,-1,-1,-1,-1],"loss_changes":[7.9646406E5,7.475055E5,7.157742E5,6.406928E5,7.2638925E5,7.746754E5,2.5881773E5,0E0,0E0,0E0,0E0,0E0,0E0,0E0,0E0],"parents":[2147483647,0,0,1,1,2,2,3,3,4,4,5,5,6,6],"right_children":[2,4,6,8,10,12,14,-1,-1,-1,-1,-1,-1,-1,-1],"split_conditions":[2.54E1,6E1,2.4E0,3.8E0,2.05E1,1.9E0,7.2E1,-3.0439317E0,6.2536736E0,3.80507E1,-6.7470245E-2,2.1654642E1,9.771782E1,1.7660162E1,-1.6479902E1],"split_indices":[0,2,1,1,0,1,2,0,0,0,0,0,0,0,0],"split_type":[0,0,0,0,0,0,0,0,0,0,0,0,0,0,0],"sum_hessian":[3.4138E4,3.4123E4,1.5E1,4.23E2,3.37E4,8E0,7E0,9.5E1,3.28E2,4E0,3.3696E4,7E0,1E0,3E0,4E0],"tree_param":{"num_deleted":"0","num_feature":"4","num_nodes":"15","size_leaf_vector":"1"}},{"base_weights":[1.497187E-2,-9.775769E0,2.2262375E0,-1.743775E1,8.721393E0,4.37267E1,-4.4971073E-1,-1.1310347E0,-4.5839353E0,-9.9752873E-1,5.6055284E0,4.6928034E0,-1.132947E1,8.8488686E-1,-4.2133498E-1],"categories":[],"categories_nodes":[],"categories_segments":[],"categories_sizes":[],"default_left":[0,0,0,0,0,0,0,0,0,0,0,0,0,0,0],"id":64,"left_children":[1,3,5,7,9,11,13,-1,-1,-1,-1,-1,-1,-1,-1],"loss_changes":[7.3912875E5,8.916017E5,3.0928485E6,7.735585E5,1.6315894E6,8.5333325E5,9.156857E5,0E0,0E0,0E0,0E0,0E0,0E0,0E0,0E0],"parents":[2147483647,0,0,1,1,2,2,3,3,4,4,5,5,6,6],"right_children":[2,4,6,8,10,12,14,-1,-1,-1,-1,-1,-1,-1,-1],"split_conditions":[2.69E1,2.6E0,1E-1,2.35E1,8E1,2.99E1,2.25E1,-1.1310347E0,-4.5839353E0,-9.9752873E-1,5.6055284E0,4.6928034E0,-1.132947E1,8.8488686E-1,-4.2133498E-1],"split_indices":[3,1,1,0,2,3,0,0,0,0,0,0,0,0,0],"split_type":[0,0,0,0,0,0,0,0,0,0,0,0,0,0,0],"sum_hessian":[3.4138E4,6.289E3,2.7849E4,4.447E3,1.842E3,1.686E3,2.6163E4,3.659E3,7.88E2,1.321E3,5.21E2,1.653E3,3.3E1,7.538E3,1.8625E4],"tree_param":{"num_deleted":"0","num_feature":"4","num_nodes":"15","size_leaf_vector":"1"}},{"base_weights":[1.3280705E-2,-8.468737E-2,2.0895386E2,-9.98467E-1,2.2429644E1,3.8277347E2,-1.2712448E1,3.1441703E0,-1.6564639E-1,1.515551E0,1.975464E1,1.9848768E1,9.2853E1,1.6367254E1,-1.5127795E1],"categories":[],"categories_nodes":[],"categories_segments":[],"categories_sizes":[],"default_left":[0,0,0,0,0,0,0,0,0,0,0,0,0,0,0],"id":65,"left_children":[1,3,5,7,9,11,13,-1,-1,-1,-1,-1,-1,-1,-1],"loss_changes":[6.988262E5,7.020602E5,6.213453E5,7.000573E5,1.6924644E6,7.2087475E5,2.2028706E5,0E0,0E0,0E0,0E0,0E0,0E0,0E0,0E0],"parents":[2147483647,0,0,1,1,2,2,3,3,4,4,5,5,6,6],"right_children":[2,4,6,8,10,12,14,-1,-1,-1,-1,-1,-1,-1,-1],"split_conditions":[2.54E1,5.3E0,2.4E0,2.13E1,2.4E1,1.9E0,7.2E1,3.1441703E0,-1.6564639E-1,1.515551E0,1.975464E1,1.9848768E1,9.2853E1,1.6367254E1,-1.5127795E1],"split_indices":[0,1,1,0,0,1,2,0,0,0,0,0,0,0,0],"split_type":[0,0,0,0,0,0,0,0,0,0,0,0,0,0,0],"sum_hessian":[3.4138E4,3.4123E4,1.5E1,3.2793E4,1.33E3,8E0,7E0,6.51E2,3.2142E4,1.278E3,5.2E1,7E0,1E0,3E0,4E0],"tree_param":{"num_deleted":"0","num_feature":"4","num_nodes":"15","size_leaf_vector":"1"}},{"base_weights":[1.5980322E-2,-6.754518E0,2.8648918E0,8.523117E0,-1.0102479E1,1.6341557E1,-3.1908388E0,5.676083E-1,1.5774173E1,-1.3923544E0,2.1544643E-1,1.2526527E1,1.4040529E0,1.2438467E0,-9.8249626E-1],"categories":[],"categories_nodes":[],"categories_segments":[],"categories_sizes":[],"default_left":[0,0,0,0,0,0,0,0,0,0,0,0,0,0,0],"id":66,"left_children":[1,3,5,7,9,11,13,-1,-1,-1,-1,-1,-1,-1,-1],"loss_changes":[6.585112E5,5.1725284E5,1.9610838E6,7.7144656E5,3.8847588E5,1.8654826E6,1.7192482E6,0E0,0E0,0E0,0E0,0E0,0E0,0E0,0E0],"parents":[2147483647,0,0,1,1,2,2,3,3,4,4,5,5,6,6],"right_children":[2,4,6,8,10,12,14,-1,-1,-1,-1,-1,-1,-1,-1],"split_conditions":[2.72E1,2.63E1,2.1E0,4.2E0,3.2E0,2.15E1,2.25E1,5.676083E-1,1.5774173E1,-1.3923544E0,2.1544643E-1,1.2526527E1,1.4040529E0,1.2438467E0,-9.8249626E-1],"split_indices":[3,3,1,1,1,0,0,0,0,0,0,0,0,0,0],"split_type":[0,0,0,0,0,0,0,0,0,0,0,0,0,0,0],"sum_hessian":[3.4138E4,1.011E4,2.4028E4,1.817E3,8.293E3,7.449E3,1.6579E4,1.784E3,3.3E1,6.322E3,1.971E3,1.53E2,7.296E3,4.94E3,1.1639E4],"tree_param":{"num_deleted":"0","num_feature":"4","num_nodes":"15","size_leaf_vector":"1"}},{"base_weights":[1.52330985E-2,-2.698026E-1,6.638159E1,-4.2983556E-1,1.10602615E2,3.5445225E1,1.8000212E2,-1.9811508E-3,-5.2345586E0,2.7516977E1,-2.2650251E0,5.564902E0,-7.0629344E0,2.0243774E1,-2.465332E1],"categories":[],"categories_nodes":[],"categories_segments":[],"categories_sizes":[],"default_left":[0,0,0,0,0,0,0,0,0,0,0,0,0,0,0],"id":67,"left_children":[1,3,5,7,9,11,13,-1,-1,-1,-1,-1,-1,-1,-1],"loss_changes":[6.458179E5,6.0321125E5,5.0681062E5,7.225975E5,1.0807559E6,2.5253103E5,3.465648E5,0E0,0E0,0E0,0E0,0E0,0E0,0E0,0E0],"parents":[2147483647,0,0,1,1,2,2,3,3,4,4,5,5,6,6],"right_children":[2,4,6,8,10,12,14,-1,-1,-1,-1,-1,-1,-1,-1],"split_conditions":[3.15E1,2.52E1,2.4E1,2.48E1,2.97E1,2.36E1,7E1,-1.9811508E-3,-5.2345586E0,2.7516977E1,-2.2650251E0,5.564902E0,-7.0629344E0,2.0243774E1,-2.465332E1],"split_indices":[3,0,0,0,3,0,2,0,0,0,0,0,0,0,0],"split_type":[0,0,0,0,0,0,0,0,0,0,0,0,0,0,0],"sum_hessian":[3.4138E4,3.3993E4,1.45E2,3.3945E4,4.8E1,1.15E2,3E1,3.368E4,2.65E2,2.1E1,2.7E1,9.7E1,1.8E1,2.9E1,1E0],"tree_param":{"num_deleted":"0","num_feature":"4","num_nodes":"15","size_leaf_vector":"1"}},{"base_weights":[1.4112785E-2,-8.4880006E-1,2.2293251E1,-1.2114443E0,5.3974834E1,-4.753106E1,3.473895E1,3.4643185E1,-1.2646483E-1,-2.0465324E1,7.70971E0,-9.078472E0,-1.803695E0,1.787039E1,1.1351787E0],"categories":[],"categories_nodes":[],"categories_segments":[],"categories_sizes":[],"default_left":[0,0,0,0,0,0,0,0,0,0,0,0,0,0,0],"id":68,"left_children":[1,3,5,7,9,11,13,-1,-1,-1,-1,-1,-1,-1,-1],"loss_changes":[6.563397E5,6.535096E5,1.1079038E6,6.0437025E5,1.3074725E6,2.445781E5,3.637625E6,0E0,0E0,0E0,0E0,0E0,0E0,0E0,0E0],"parents":[2147483647,0,0,1,1,2,2,3,3,4,4,5,5,6,6],"right_children":[2,4,6,8,10,12,14,-1,-1,-1,-1,-1,-1,-1,-1],"split_conditions":[2.44E1,6E0,2.77E1,2.05E1,2.12E1,3E-1,5E-1,3.4643185E1,-1.2646483E-1,-2.0465324E1,7.70971E0,-9.078472E0,-1.803695E0,1.787039E1,1.1351787E0],"split_indices":[0,1,3,0,0,1,1,0,0,0,0,0,0,0,0],"split_type":[0,0,0,0,0,0,0,0,0,0,0,0,0,0,0],"sum_hessian":[3.4138E4,3.2866E4,1.272E3,3.2651E4,2.15E2,1.92E2,1.08E3,4E0,3.2647E4,1.7E1,1.98E2,7.7E1,1.15E2,1.5E2,9.3E2],"tree_param":{"num_deleted":"0","num_feature":"4","num_nodes":"15","size_leaf_vector":"1"}},{"base_weights":[1.3576244E-2,-3.5166283E0,5.1179304E0,-3.3820393E0,-3.0481464E2,-4.4849522E-2,3.3519253E1,3.8024728E0,-4.2407995E-1,-4.4770687E1,-1.0095952E1,1.6588091E0,-1.0599523E0,1.0884232E1,2.473241E0],"categories":[],"categories_nodes":[],"categories_segments":[],"categories_sizes":[],"default_left":[0,0,0,0,0,0,0,0,0,0,0,0,0,0,0],"id":69,"left_children":[1,3,5,7,9,11,13,-1,-1,-1,-1,-1,-1,-1,-1],"loss_changes":[6.151828E5,8.173775E5,2.0466599E6,7.175179E5,2.169635E5,2.0738344E6,1.418304E6,0E0,0E0,0E0,0E0,0E0,0E0,0E0,0E0],"parents":[2147483647,0,0,1,1,2,2,3,3,4,4,5,5,6,6],"right_children":[2,4,6,8,10,12,14,-1,-1,-1,-1,-1,-1,-1,-1],"split_conditions":[2.31E1,3.2E1,4.2E0,6E1,3.8E0,1.1E0,2.79E1,3.8024728E0,-4.2407995E-1,-4.4770687E1,-1.0095952E1,1.6588091E0,-1.0599523E0,1.0884232E1,2.473241E0],"split_indices":[0,3,1,2,1,1,3,0,0,0,0,0,0,0,0],"split_type":[0,0,0,0,0,0,0,0,0,0,0,0,0,0,0],"sum_hessian":[3.4138E4,2.0181E4,1.3957E4,2.0173E4,8E0,1.1811E4,2.146E3,4.09E2,1.9764E4,4E0,4E0,4.585E3,7.226E3,2.23E2,1.923E3],"tree_param":{"num_deleted":"0","num_feature":"4","num_nodes":"15","size_leaf_vector":"1"}},{"base_weights":[1.1125353E-2,-1.8542057E0,8.56333E0,-2.2867672E0,5.5180965E1,2.930616E1,-5.5948386E0,3.1905655E1,-2.3444536E-1,-1.8586359E1,7.726149E0,3.0439742E0,-3.2477562E1,-9.2934364E-1,2.1867264E1],"categories":[],"categories_nodes":[],"categories_segments":[],"categories_sizes":[],"default_left":[0,0,0,0,0,0,0,0,0,0,0,0,0,0,0],"id":70,"left_children":[1,3,5,7,9,11,13,-1,-1,-1,-1,-1,-1,-1,-1],"loss_changes":[5.446248E5,6.915866E5,1.7954328E6,5.1639494E5,1.1373844E6,1.00531E6,3.016345E6,0E0,0E0,0E0,0E0,0E0,0E0,0E0,0E0],"parents":[2147483647,0,0,1,1,2,2,3,3,4,4,5,5,6,6],"right_children":[2,4,6,8,10,12,14,-1,-1,-1,-1,-1,-1,-1,-1],"split_conditions":[2.37E1,6E0,7.6E1,2.05E1,2.12E1,5.9E0,4.8E0,3.1905655E1,-2.3444536E-1,-1.8586359E1,7.726149E0,3.0439742E0,-3.2477562E1,-9.2934364E-1,2.1867264E1],"split_indices":[0,1,2,0,0,1,1,0,0,0,0,0,0,0,0],"split_type":[0,0,0,0,0,0,0,0,0,0,0,0,0,0,0],"sum_hessian":[3.4138E4,2.8026E4,6.112E3,2.7816E4,2.1E2,2.479E3,3.633E3,4E0,2.7812E4,1.7E1,1.93E2,2.472E3,7E0,3.575E3,5.8E1],"tree_param":{"num_deleted":"0","num_feature":"4","num_nodes":"15","size_leaf_vector":"1"}},{"base_weights":[1.0370401E-2,-7.37764E-2,1.7947382E2,5.6345206E-1,-2.3072796E1,3.3684958E2,-2.0008163E1,8.878985E0,2.1935288E-2,-3.2581875E0,3.8807836E0,1.6163996E1,8.692633E1,1.4586627E1,-1.4870608E1],"categories":[],"categories_nodes":[],"categories_segments":[],"categories_sizes":[],"default_left":[0,0,0,0,0,0,0,0,0,0,0,0,0,0,0],"id":71,"left_children":[1,3,5,7,9,11,13,-1,-1,-1,-1,-1,-1,-1,-1],"loss_changes":[5.1555566E5,5.001217E5,5.090378E5,1.0080389E6,5.4261794E5,6.990485E5,1.9247275E5,0E0,0E0,0E0,0E0,0E0,0E0,0E0,0E0],"parents":[2147483647,0,0,1,1,2,2,3,3,4,4,5,5,6,6],"right_children":[2,4,6,8,10,12,14,-1,-1,-1,-1,-1,-1,-1,-1],"split_conditions":[2.54E1,8.6E1,2.4E0,2.56E1,2.5E0,1.9E0,7.2E1,8.878985E0,2.1935288E-2,-3.2581875E0,3.8807836E0,1.6163996E1,8.692633E1,1.4586627E1,-1.4870608E1],"split_indices":[0,2,1,3,1,1,2,0,0,0,0,0,0,0,0],"split_type":[0,0,0,0,0,0,0,0,0,0,0,0,0,0,0],"sum_hessian":[3.4138E4,3.4123E4,1.5E1,3.3204E4,9.19E2,8E0,7E0,1.28E2,3.3076E4,7.97E2,1.22E2,7E0,1E0,3E0,4E0],"tree_param":{"num_deleted":"0","num_feature":"4","num_nodes":"15","size_leaf_vector":"1"}},{"base_weights":[1.2611487E-2,-2.3758653E-1,5.8267536E1,2.9407332E0,-4.877976E0,3.1462387E1,1.5669107E2,-4.4599906E-1,1.4737934E0,-1.3404984E0,1.1024565E0,4.3010936E0,-1.298194E1,4.418446E-1,2.2899145E1],"categories":[],"categories_nodes":[],"categories_segments":[],"categories_sizes":[],"default_left":[0,0,0,0,0,0,0,0,0,0,0,0,0,0,0],"id":72,"left_children":[1,3,5,7,9,11,13,-1,-1,-1,-1,-1,-1,-1,-1],"loss_changes":[4.9759888E5,5.0137962E5,3.802557E5,1.7615885E6,1.8740192E6,2.2164186E5,3.4027856E5,0E0,0E0,0E0,0E0,0E0,0E0,0E0,0E0],"parents":[2147483647,0,0,1,1,2,2,3,3,4,4,5,5,6,6],"right_children":[2,4,6,8,10,12,14,-1,-1,-1,-1,-1,-1,-1,-1],"split_conditions":[3.15E1,3.3E0,2.4E1,2.77E1,2.96E1,2.39E1,3.8E0,-4.4599906E-1,1.4737934E0,-1.3404984E0,1.1024565E0,4.3010936E0,-1.298194E1,4.418446E-1,2.2899145E1],"split_indices":[3,1,0,3,3,0,1,0,0,0,0,0,0,0,0],"split_type":[0,0,0,0,0,0,0,0,0,0,0,0,0,0,0],"sum_hessian":[3.4138E4,3.3993E4,1.45E2,2.0175E4,1.3818E4,1.15E2,3E1,1.2398E4,7.777E3,8.995E3,4.823E3,1.08E2,7E0,1E1,2E1],"tree_param":{"num_deleted":"0","num_feature":"4","num_nodes":"15","size_leaf_vector":"1"}},{"base_weights":[1.1787215E-2,-6.584775E-2,1.6558702E2,2.9384515E2,-1.0891601E-1,3.1373563E2,-2.1778564E1,5.184077E1,-2.8665807E0,-6.6708945E-2,2.2559185E0,1.4668677E1,8.250633E1,1.2865021E1,-1.37765875E1],"categories":[],"categories_nodes":[],"categories_segments":[],"categories_sizes":[],"default_left":[0,0,0,0,0,0,0,0,0,0,0,0,0,0,0],"id":73,"left_children":[1,3,5,7,9,11,13,-1,-1,-1,-1,-1,-1,-1,-1],"loss_changes":[4.388482E5,4.3198162E5,4.509599E5,3.7698003E5,4.3172628E5,6.4772456E5,1.5730622E5,0E0,0E0,0E0,0E0,0E0,0E0,0E0,0E0],"parents":[2147483647,0,0,1,1,2,2,3,3,4,4,5,5,6,6],"right_children":[2,4,6,8,10,12,14,-1,-1,-1,-1,-1,-1,-1,-1],"split_conditions":[2.54E1,2.05E1,2.4E0,6.5E1,5.5E0,1.9E0,7.2E1,5.184077E1,-2.8665807E0,-6.6708945E-2,2.2559185E0,1.4668677E1,8.250633E1,1.2865021E1,-1.37765875E1],"split_indices":[0,0,1,2,1,1,2,0,0,0,0,0,0,0,0],"split_type":[0,0,0,0,0,0,0,0,0,0,0,0,0,0,0],"sum_hessian":[3.4138E4,3.4123E4,1.5E1,4E0,3.4119E4,8E0,7E0,2E0,2E0,3.33E4,8.19E2,7E0,1E0,3E0,4E0],"tree_param":{"num_deleted":"0","num_feature":"4","num_nodes":"15","size_leaf_vector":"1"}},{"base_weights":[1.4909712E-2,-6.691974E-1,1.7677544E1,-1.7475545E-1,-4.1736515E1,6.301406E1,2.324565E0,-1.5252858E-1,1.3615447E0,2.147853E1,-6.676881E0,2.6863104E1,1.6823086E0,1.4724955E1,-1.005778E0],"categories":[],"categories_nodes":[],"categories_segments":[],"categories_sizes":[],"default_left":[0,0,0,0,0,0,0,0,0,0,0,0,0,0,0],"id":74,"left_children":[1,3,5,7,9,11,13,-1,-1,-1,-1,-1,-1,-1,-1],"loss_changes":[4.125179E5,6.673704E5,8.859259E5,6.048753E5,2.5250805E6,3.053724E6,1.7098554E6,0E0,0E0,0E0,0E0,0E0,0E0,0E0,0E0],"parents":[2147483647,0,0,1,1,2,2,3,3,4,4,5,5,6,6],"right_children":[2,4,6,8,10,12,14,-1,-1,-1,-1,-1,-1,-1,-1],"split_conditions":[2.44E1,2.43E1,2.45E1,3.02E1,1E-1,4E-1,7E1,-1.5252858E-1,1.3615447E0,2.147853E1,-6.676881E0,2.6863104E1,1.6823086E0,1.4724955E1,-1.005778E0],"split_indices":[0,0,0,3,1,1,2,0,0,0,0,0,0,0,0],"split_type":[0,0,0,0,0,0,0,0,0,0,0,0,0,0,0],"sum_hessian":[3.4138E4,3.2866E4,1.272E3,3.2476E4,3.9E2,3.21E2,9.51E2,2.958E4,2.896E3,3.4E1,3.56E2,5.8E1,2.63E2,7.4E1,8.77E2],"tree_param":{"num_deleted":"0","num_feature":"4","num_nodes":"15","size_leaf_vector":"1"}},{"base_weights":[1.5137485E-2,5.6342278E0,-2.0842786E0,5.1742333E-1,4.375139E1,5.114683E0,-5.700604E0,-1.2347198E0,9.509206E-1,6.7361865E0,-4.9298563E0,-6.3020873E-1,1.6062062E0,-6.824267E-1,4.237336E0],"categories":[],"categories_nodes":[],"categories_segments":[],"categories_sizes":[],"default_left":[0,0,0,0,0,0,0,0,0,0,0,0,0,0,0],"id":75,"left_children":[1,3,5,7,9,11,13,-1,-1,-1,-1,-1,-1,-1,-1],"loss_changes":[4.0274297E5,1.8111006E6,6.470729E5,9.4727144E5,2.417773E6,1.03884075E6,8.9397844E5,0E0,0E0,0E0,0E0,0E0,0E0,0E0,0E0],"parents":[2147483647,0,0,1,1,2,2,3,3,4,4,5,5,6,6],"right_children":[2,4,6,8,10,12,14,-1,-1,-1,-1,-1,-1,-1,-1],"split_conditions":[1.1E0,2.87E1,2.25E1,2.7E1,2.99E1,2.76E1,5.5E0,-1.2347198E0,9.509206E-1,6.7361865E0,-4.9298563E0,-6.3020873E-1,1.6062062E0,-6.824267E-1,4.237336E0],"split_indices":[1,3,0,3,3,3,1,0,0,0,0,0,0,0,0],"split_type":[0,0,0,0,0,0,0,0,0,0,0,0,0,0,0],"sum_hessian":[3.4138E4,9.285E3,2.4853E4,8.187E3,1.098E3,8.31E3,1.6543E4,3.368E3,4.819E3,8.76E2,2.22E2,4.068E3,4.242E3,1.6166E4,3.77E2],"tree_param":{"num_deleted":"0","num_feature":"4","num_nodes":"15","size_leaf_vector":"1"}},{"base_weights":[1.3791463E-2,-2.1907153E0,5.768448E0,1.193995E0,-1.5586359E1,2.833693E0,1.2782561E2,-2.23243E-1,2.4994733E0,-1.0341631E0,-8.556686E0,2.3475741E-1,2.160124E1,1.6338087E1,-7.3579345E0],"categories":[],"categories_nodes":[],"categories_segments":[],"categories_sizes":[],"default_left":[0,0,0,0,0,0,0,0,0,0,0,0,0,0,0],"id":76,"left_children":[1,3,5,7,9,11,13,-1,-1,-1,-1,-1,-1,-1,-1],"loss_changes":[4.3310606E5,1.1192004E6,3.3868508E6,1.6071085E6,1.8265508E6,9.56518E5,1.6017642E6,0E0,0E0,0E0,0E0,0E0,0E0,0E0,0E0],"parents":[2147483647,0,0,1,1,2,2,3,3,4,4,5,5,6,6],"right_children":[2,4,6,8,10,12,14,-1,-1,-1,-1,-1,-1,-1,-1],"split_conditions":[7.8E1,7.6E1,4.3E0,2.37E1,2.86E1,2.52E1,2.81E1,-2.23243E-1,2.4994733E0,-1.0341631E0,-8.556686E0,2.3475741E-1,2.160124E1,1.6338087E1,-7.3579345E0],"split_indices":[2,2,1,0,3,0,3,0,0,0,0,0,0,0,0],"split_type":[0,0,0,0,0,0,0,0,0,0,0,0,0,0,0],"sum_hessian":[3.4138E4,2.4683E4,9.455E3,1.9705E4,4.978E3,9.234E3,2.21E2,1.7226E4,2.479E3,4.632E3,3.46E2,9.214E3,2E1,1.88E2,3.3E1],"tree_param":{"num_deleted":"0","num_feature":"4","num_nodes":"15","size_leaf_vector":"1"}},{"base_weights":[1.3086907E-2,2.8914063E0,-4.1547604E0,-3.3336792E0,1.2791604E1,-1.1746563E1,9.640435E0,-2.637039E-1,-4.9566417E0,1.1787783E0,3.373712E1,-7.281406E-1,-1.0359141E1,1.0020694E0,-6.208726E1],"categories":[],"categories_nodes":[],"categories_segments":[],"categories_sizes":[],"default_left":[0,0,0,0,0,0,0,0,0,0,0,0,0,0,0],"id":77,"left_children":[1,3,5,7,9,11,13,-1,-1,-1,-1,-1,-1,-1,-1],"loss_changes":[4.0955697E5,1.2445904E6,1.4606835E6,3.9921112E5,2.5361155E6,3.6885208E6,1.1932629E6,0E0,0E0,0E0,0E0,0E0,0E0,0E0,0E0],"parents":[2147483647,0,0,1,1,2,2,3,3,4,4,5,5,6,6],"right_children":[2,4,6,8,10,12,14,-1,-1,-1,-1,-1,-1,-1,-1],"split_conditions":[3.3E0,2.77E1,2.96E1,2.44E1,8.4E1,2.41E1,7.7E1,-2.637039E-1,-4.9566417E0,1.1787783E0,3.373712E1,-7.281406E-1,-1.0359141E1,1.0020694E0,-6.208726E1],"split_indices":[1,3,3,0,2,0,2,0,0,0,0,0,0,0,0],"split_type":[0,0,0,0,0,0,0,0,0,0,0,0,0,0,0],"sum_hessian":[3.4138E4,2.0193E4,1.3945E4,1.2398E4,7.795E3,8.995E3,4.95E3,1.2215E4,1.83E2,7.772E3,2.3E1,8.579E3,4.16E2,4.948E3,2E0],"tree_param":{"num_deleted":"0","num_feature":"4","num_nodes":"15","size_leaf_vector":"1"}},{"base_weights":[1.0550195E-2,-2.1276865E0,5.592215E0,8.063264E-1,-1.3739562E1,3.320693E0,1.4098859E2,-2.249031E-1,2.2029648E0,-9.1661996E-1,-7.4761605E0,2.8882304E-1,1.9429054E1,1.2148702E1,6.082801E1],"categories":[],"categories_nodes":[],"categories_segments":[],"categories_sizes":[],"default_left":[0,0,0,0,0,0,0,0,0,0,0,0,0,0,0],"id":78,"left_children":[1,3,5,7,9,11,13,-1,-1,-1,-1,-1,-1,-1,-1],"loss_changes":[4.0745812E5,8.4098E5,2.9077798E6,1.2778818E6,1.388834E6,7.6758394E5,1.3477172E6,0E0,0E0,0E0,0E0,0E0,0E0,0E0,0E0],"parents":[2147483647,0,0,1,1,2,2,3,3,4,4,5,5,6,6],"right_children":[2,4,6,8,10,12,14,-1,-1,-1,-1,-1,-1,-1,-1],"split_conditions":[7.8E1,7.6E1,4.5E0,2.37E1,2.86E1,2.52E1,2.47E1,-2.249031E-1,2.2029648E0,-9.1661996E-1,-7.4761605E0,2.8882304E-1,1.9429054E1,1.2148702E1,6.082801E1],"split_indices":[2,2,1,0,3,0,0,0,0,0,0,0,0,0,0],"split_type":[0,0,0,0,0,0,0,0,0,0,0,0,0,0,0],"sum_hessian":[3.4138E4,2.4683E4,9.455E3,1.9705E4,4.978E3,9.3E3,1.55E2,1.7226E4,2.479E3,4.632E3,3.46E2,9.28E3,2E1,1.5E2,5E0],"tree_param":{"num_deleted":"0","num_feature":"4","num_nodes":"15","size_leaf_vector":"1"}},{"base_weights":[1.2014054E-2,2.7400656E2,-2.8120257E-2,4.830266E1,-2.634903E1,1.0568445E1,-1.0401661E0,4.2772937E0,-8.229648E0,-2.2781649E0,3.606403E0,1.8641847E0,-1.8743159E-1],"categories":[],"categories_nodes":[],"categories_segments":[],"categories_sizes":[],"default_left":[0,0,0,0,0,0,0,0,0,0,0,0,0],"id":79,"left_children":[1,3,5,-1,7,9,11,-1,-1,-1,-1,-1,-1],"loss_changes":[3.7542E5,3.2662894E5,3.660819E5,0E0,1.5121654E4,2.5312555E6,5.116118E5,0E0,0E0,0E0,0E0,0E0,0E0],"parents":[2147483647,0,0,1,1,2,2,4,4,5,5,6,6],"right_children":[2,4,6,-1,8,10,12,-1,-1,-1,-1,-1,-1],"split_conditions":[2.05E1,6.5E1,1E-1,4.830266E1,2.6E0,2.69E1,2.63E1,4.2772937E0,-8.229648E0,-2.2781649E0,3.606403E0,1.8641847E0,-1.8743159E-1],"split_indices":[0,2,1,0,1,3,3,0,0,0,0,0,0],"split_type":[0,0,0,0,0,0,0,0,0,0,0,0,0],"sum_hessian":[3.4138E4,4E0,3.4134E4,2E0,2E0,2.975E3,3.1159E4,1E0,1E0,1.289E3,1.686E3,1.266E3,2.9893E4],"tree_param":{"num_deleted":"0","num_feature":"4","num_nodes":"13","size_leaf_vector":"1"}},{"base_weights":[1.2205883E-2,5.616976E-1,-1.9785006E1,7.137881E1,1.9955985E-1,-2.7801477E1,3.2515507E1,3.9466336E0,3.0715338E1,1.3700118E0,-9.522035E-2,-1.6726426E0,-5.824434E0,-5.1389194E0,1.1324045E1],"categories":[],"categories_nodes":[],"categories_segments":[],"categories_sizes":[],"default_left":[0,0,0,0,0,0,0,0,0,0,0,0,0,0,0],"id":80,"left_children":[1,3,5,7,9,11,13,-1,-1,-1,-1,-1,-1,-1,-1],"loss_changes":[3.713889E5,8.5187956E5,3.874669E5,1.2594588E6,5.139223E5,2.687508E5,8.3892325E5,0E0,0E0,0E0,0E0,0E0,0E0,0E0,0E0],"parents":[2147483647,0,0,1,1,2,2,3,3,4,4,5,5,6,6],"right_children":[2,4,6,8,10,12,14,-1,-1,-1,-1,-1,-1,-1,-1],"split_conditions":[8.6E1,2.57E1,2.5E0,2.3E0,1E-1,1.1E0,2.36E1,3.9466336E0,3.0715338E1,1.3700118E0,-9.522035E-2,-1.6726426E0,-5.824434E0,-5.1389194E0,1.1324045E1],"split_indices":[2,3,1,1,1,1,0,0,0,0,0,0,0,0,0],"split_type":[0,0,0,0,0,0,0,0,0,0,0,0,0,0,0],"sum_hessian":[3.4138E4,3.3217E4,9.21E2,1.68E2,3.3049E4,7.99E2,1.22E2,1.49E2,1.9E1,2.597E3,3.0452E4,5.87E2,2.12E2,6E1,6.2E1],"tree_param":{"num_deleted":"0","num_feature":"4","num_nodes":"15","size_leaf_vector":"1"}},{"base_weights":[1.1996476E-2,-1.9366992E-1,4.7898376E1,2.4818408E0,-4.099952E0,2.597721E1,1.2838086E2,-3.1411827E-1,1.1445249E0,-1.5322493E0,2.999966E-1,4.8159404E0,-5.6692348E0,-1.364982E1,1.616357E1],"categories":[],"categories_nodes":[],"categories_segments":[],"categories_sizes":[],"default_left":[0,0,0,0,0,0,0,0,0,0,0,0,0,0,0],"id":81,"left_children":[1,3,5,7,9,11,13,-1,-1,-1,-1,-1,-1,-1,-1],"loss_changes":[3.362313E5,3.552917E5,2.5424847E5,1.01693575E6,1.1011316E6,2.154501E5,2.9512684E5,0E0,0E0,0E0,0E0,0E0,0E0,0E0,0E0],"parents":[2147483647,0,0,1,1,2,2,3,3,4,4,5,5,6,6],"right_children":[2,4,6,8,10,12,14,-1,-1,-1,-1,-1,-1,-1,-1],"split_conditions":[3.15E1,3.3E0,2.4E1,2.77E1,4E0,3.19E1,3E0,-3.1411827E-1,1.1445249E0,-1.5322493E0,2.999966E-1,4.8159404E0,-5.6692348E0,-1.364982E1,1.616357E1],"split_indices":[3,1,0,3,1,3,1,0,0,0,0,0,0,0,0],"split_type":[0,0,0,0,0,0,0,0,0,0,0,0,0,0,0],"sum_hessian":[3.4138E4,3.3993E4,1.45E2,2.0175E4,1.3818E4,1.15E2,3E1,1.2398E4,7.777E3,5.354E3,8.464E3,9.1E1,2.4E1,3E0,2.7E1],"tree_param":{"num_deleted":"0","num_feature":"4","num_nodes":"15","size_leaf_vector":"1"}},{"base_weights":[1.0822098E-2,-1.9057741E0,5.0139155E0,7.289343E-1,-1.23331E1,2.5473032E0,1.07600174E2,-1.9678567E-1,1.9461552E0,-1.1043382E0,-2.1783266E1,1.8277977E-1,1.0402484E1,1.3914764E1,-7.093137E0],"categories":[],"categories_nodes":[],"categories_segments":[],"categories_sizes":[],"default_left":[0,0,0,0,0,0,0,0,0,0,0,0,0,0,0],"id":82,"left_children":[1,3,5,7,9,11,13,-1,-1,-1,-1,-1,-1,-1,-1],"loss_changes":[3.2736538E5,6.781516E5,2.3924772E6,9.9554506E5,1.317212E6,6.74091E5,1.260222E6,0E0,0E0,0E0,0E0,0E0,0E0,0E0,0E0],"parents":[2147483647,0,0,1,1,2,2,3,3,4,4,5,5,6,6],"right_children":[2,4,6,8,10,12,14,-1,-1,-1,-1,-1,-1,-1,-1],"split_conditions":[7.8E1,7.6E1,4.3E0,2.37E1,2.95E1,2.88E1,2.81E1,-1.9678567E-1,1.9461552E0,-1.1043382E0,-2.1783266E1,1.8277977E-1,1.0402484E1,1.3914764E1,-7.093137E0],"split_indices":[2,2,1,0,3,3,3,0,0,0,0,0,0,0,0],"split_type":[0,0,0,0,0,0,0,0,0,0,0,0,0,0,0],"sum_hessian":[3.4138E4,2.4683E4,9.455E3,1.9705E4,4.978E3,9.234E3,2.21E2,1.7226E4,2.479E3,4.948E3,3E1,9.17E3,6.4E1,1.88E2,3.3E1],"tree_param":{"num_deleted":"0","num_feature":"4","num_nodes":"15","size_leaf_vector":"1"}},{"base_weights":[9.6331015E-3,2.5578993E2,-2.7833167E-2,4.50538E1,-2.4221457E1,-9.257931E-2,1.3804506E2,4.0937347E0,-7.726953E0,-1.2031025E-3,-1.717805E1,2.7063704E1,-2.8376558E0],"categories":[],"categories_nodes":[],"categories_segments":[],"categories_sizes":[],"default_left":[0,0,0,0,0,0,0,0,0,0,0,0,0],"id":83,"left_children":[1,3,5,-1,7,9,11,-1,-1,-1,-1,-1,-1],"loss_changes":[3.2716572E5,2.8357112E5,3.05169E5,0E0,1.3532857E4,4.7184912E5,3.6073844E5,0E0,0E0,0E0,0E0,0E0,0E0],"parents":[2147483647,0,0,1,1,2,2,4,4,5,5,6,6],"right_children":[2,4,6,-1,8,10,12,-1,-1,-1,-1,-1,-1],"split_conditions":[2.05E1,6.5E1,2.54E1,4.50538E1,2.6E0,2.53E1,2.4E0,4.0937347E0,-7.726953E0,-1.2031025E-3,-1.717805E1,2.7063704E1,-2.8376558E0],"split_indices":[0,2,0,0,1,0,1,0,0,0,0,0,0],"split_type":[0,0,0,0,0,0,0,0,0,0,0,0,0],"sum_hessian":[3.4138E4,4E0,3.4134E4,2E0,2E0,3.4119E4,1.5E1,1E0,1E0,3.4104E4,1.5E1,8E0,7E0],"tree_param":{"num_deleted":"0","num_feature":"4","num_nodes":"13","size_leaf_vector":"1"}},{"base_weights":[1.0096252E-2,5.0874954E-1,-1.7955496E1,7.3801254E1,2.2300638E-1,-1.6128784E1,-2.5442877E1,3.9526985E0,3.3165062E1,1.2667415E0,-8.452396E-2,-1.9532166E0,2.6565231E1],"categories":[],"categories_nodes":[],"categories_segments":[],"categories_sizes":[],"default_left":[0,0,0,0,0,0,0,0,0,0,0,0,0],"id":84,"left_children":[1,3,5,7,9,11,-1,-1,-1,-1,-1,-1,-1],"loss_changes":[3.0584688E5,6.956626E5,3.9417147E5,1.126941E6,4.398989E5,8.836406E5,0E0,0E0,0E0,0E0,0E0,0E0,0E0],"parents":[2147483647,0,0,1,1,2,2,3,3,4,4,5,5],"right_children":[2,4,6,8,10,12,-1,-1,-1,-1,-1,-1,-1],"split_conditions":[8.6E1,2.56E1,5.4E0,2.3E0,1E-1,4.2E0,-2.5442877E1,3.9526985E0,3.3165062E1,1.2667415E0,-8.452396E-2,-1.9532166E0,2.6565231E1],"split_indices":[2,3,1,1,1,1,0,0,0,0,0,0,0],"split_type":[0,0,0,0,0,0,0,0,0,0,0,0,0],"sum_hessian":[3.4138E4,3.3217E4,9.21E2,1.28E2,3.3089E4,9.15E2,6E0,1.14E2,1.4E1,2.615E3,3.0474E4,9.05E2,1E1],"tree_param":{"num_deleted":"0","num_feature":"4","num_nodes":"13","size_leaf_vector":"1"}},{"base_weights":[1.0167142E-2,-2.2382513E-1,3.6759907E1,2.2208176E1,-6.854016E-1,-1.7122968E2,5.5388313E1,-2.0600865E0,7.87279E0,-2.7318427E-1,4.4684622E-1,-3.3081844E1,-6.3867116E0,6.8132744E0,-1.6861952E1],"categories":[],"categories_nodes":[],"categories_segments":[],"categories_sizes":[],"default_left":[0,0,0,0,0,0,0,0,0,0,0,0,0,0,0],"id":85,"left_children":[1,3,5,7,9,11,13,-1,-1,-1,-1,-1,-1,-1,-1],"loss_changes":[2.9357475E5,3.512672E5,8.4637925E5,1.6565974E6,3.5060762E5,2.8728094E5,5.796043E5,0E0,0E0,0E0,0E0,0E0,0E0,0E0,0E0],"parents":[2147483647,0,0,1,1,2,2,3,3,4,4,5,5,6,6],"right_children":[2,4,6,8,10,12,14,-1,-1,-1,-1,-1,-1,-1,-1],"split_conditions":[6E0,2.13E1,2.12E1,2.74E1,7.8E1,2.93E1,2.34E1,-2.0600865E0,7.87279E0,-2.7318427E-1,4.4684622E-1,-3.3081844E1,-6.3867116E0,6.8132744E0,-1.6861952E1],"split_indices":[1,0,0,3,2,3,0,0,0,0,0,0,0,0,0],"split_type":[0,0,0,0,0,0,0,0,0,0,0,0,0,0,0],"sum_hessian":[3.4138E4,3.3923E4,2.15E2,6.83E2,3.324E4,1.7E1,1.98E2,3.89E2,2.94E2,2.3793E4,9.447E3,6E0,1.1E1,1.88E2,1E1],"tree_param":{"num_deleted":"0","num_feature":"4","num_nodes":"15","size_leaf_vector":"1"}},{"base_weights":[7.878764E-3,2.937506E-1,-3.0015793E1,-5.4803866E-1,2.9355509E1,-1.0796946E2,7.1403565E0,-9.652889E-3,-3.804966E0,5.163572E0,-2.512382E0,1.7517134E0,-1.8667229E1,6.8876023E0,-5.812386E0],"categories":[],"categories_nodes":[],"categories_segments":[],"categories_sizes":[],"default_left":[0,0,0,0,0,0,0,0,0,0,0,0,0,0,0],"id":86,"left_children":[1,3,5,7,9,11,13,-1,-1,-1,-1,-1,-1,-1,-1],"loss_changes":[2.9302122E5,8.273355E5,9.334304E5,5.565118E5,1.156845E6,1.03038925E6,8.863829E5,0E0,0E0,0E0,0E0,0E0,0E0,0E0,0E0],"parents":[2147483647,0,0,1,1,2,2,3,3,4,4,5,5,6,6],"right_children":[2,4,6,8,10,12,14,-1,-1,-1,-1,-1,-1,-1,-1],"split_conditions":[2.48E1,2.44E1,2.49E1,2.43E1,8.1E1,2.2E0,3.2E0,-9.652889E-3,-3.804966E0,5.163572E0,-2.512382E0,1.7517134E0,-1.8667229E1,6.8876023E0,-5.812386E0],"split_indices":[0,0,0,0,2,1,1,0,0,0,0,0,0,0,0],"split_type":[0,0,0,0,0,0,0,0,0,0,0,0,0,0,0],"sum_hessian":[3.4138E4,3.3817E4,3.21E2,3.2866E4,9.51E2,1.03E2,2.18E2,3.2476E4,3.9E2,6.75E2,2.76E2,4E1,6.3E1,1.12E2,1.06E2],"tree_param":{"num_deleted":"0","num_feature":"4","num_nodes":"15","size_leaf_vector":"1"}},{"base_weights":[6.6102645E-3,-2.5274587E-1,3.1145876E1,4.9769793E-2,-3.3866207E1,1.512835E1,1.818622E2,-7.306644E-2,2.7521508E0,-1.1630093E1,2.8018665E-1,2.1158893E-1,1.1308503E1,2.2929539E1,-7.270288E0],"categories":[],"categories_nodes":[],"categories_segments":[],"categories_sizes":[],"default_left":[0,0,0,0,0,0,0,0,0,0,0,0,0,0,0],"id":87,"left_children":[1,3,5,7,9,11,13,-1,-1,-1,-1,-1,-1,-1,-1],"loss_changes":[2.7571988E5,3.4429006E5,6.7802556E5,7.194783E5,9.1318794E5,3.2607303E5,3.4269088E5,0E0,0E0,0E0,0E0,0E0,0E0,0E0,0E0],"parents":[2147483647,0,0,1,1,2,2,3,3,4,4,5,5,6,6],"right_children":[2,4,6,8,10,12,14,-1,-1,-1,-1,-1,-1,-1,-1],"split_conditions":[3.13E1,2.48E1,5.3E0,2.44E1,7.5E1,2.46E1,2.42E1,-7.306644E-2,2.7521508E0,-1.1630093E1,2.8018665E-1,2.1158893E-1,1.1308503E1,2.2929539E1,-7.270288E0],"split_indices":[3,0,1,0,2,0,0,0,0,0,0,0,0,0,0],"split_type":[0,0,0,0,0,0,0,0,0,0,0,0,0,0,0],"sum_hessian":[3.4138E4,3.3857E4,2.81E2,3.3556E4,3.01E2,2.55E2,2.6E1,3.263E4,9.26E2,9.2E1,2.09E2,2.26E2,2.9E1,2.2E1,4E0],"tree_param":{"num_deleted":"0","num_feature":"4","num_nodes":"15","size_leaf_vector":"1"}},{"base_weights":[6.4848755E-3,2.9330525E-1,-2.808946E1,3.7460403E1,-2.8390903E-2,-3.974848E1,6.4408195E1,2.3640242E0,1.2579938E1,9.876177E-1,-9.132611E-2,-3.297469E0,-9.144836E0,-8.113677E0,2.5753326E1],"categories":[],"categories_nodes":[],"categories_segments":[],"categories_sizes":[],"default_left":[0,0,0,0,0,0,0,0,0,0,0,0,0,0,0],"id":88,"left_children":[1,3,5,7,9,11,13,-1,-1,-1,-1,-1,-1,-1,-1],"loss_changes":[2.75117E5,4.0407138E5,3.746192E5,3.510752E5,2.9366422E5,1.0449722E5,1.1171221E6,0E0,0E0,0E0,0E0,0E0,0E0,0E0,0E0],"parents":[2147483647,0,0,1,1,2,2,3,3,4,4,5,5,6,6],"right_children":[2,4,6,8,10,12,14,-1,-1,-1,-1,-1,-1,-1,-1],"split_conditions":[8.9E1,2.56E1,2.5E0,2.3E0,1E-1,2.61E1,2.36E1,2.3640242E0,1.2579938E1,9.876177E-1,-9.132611E-2,-3.297469E0,-9.144836E0,-8.113677E0,2.5753326E1],"split_indices":[2,3,1,1,1,3,0,0,0,0,0,0,0,0,0],"split_type":[0,0,0,0,0,0,0,0,0,0,0,0,0,0,0],"sum_hessian":[3.4138E4,3.3794E4,3.44E2,2.89E2,3.3505E4,3.06E2,3.8E1,2.51E2,3.8E1,2.747E3,3.0758E4,2.72E2,3.4E1,2.2E1,1.6E1],"tree_param":{"num_deleted":"0","num_feature":"4","num_nodes":"15","size_leaf_vector":"1"}},{"base_weights":[6.445901E-3,2.3439023E2,-2.7886175E-2,4.15426E1,-2.477558E1,-4.575309E1,1.5096511E-1,3.5083358E0,-7.224673E0,-6.564439E-1,